digraph Tree {
node [shape=box] ;
0 [label="X[350] <= 131.5\ngini = 0.9\nsamples = 60000\nvalue = [5923, 6742, 5958, 6131, 5842, 5421, 5918, 6265, 5851\n5949]"] ;
1 [label="X[568] <= 0.5\ngini = 0.881\nsamples = 39160\nvalue = [5433, 623, 4772, 1312, 5353, 3266, 4775, 5773, 3081\n4772]"] ;
0 -> 1 [labeldistance=2.5, labelangle=45, headlabel="True"] ;
2 [label="X[430] <= 0.5\ngini = 0.839\nsamples = 24084\nvalue = [697, 414, 904, 847, 5133, 1668, 2771, 5568, 1439\n4643]"] ;
1 -> 2 ;
3 [label="X[405] <= 2.5\ngini = 0.705\nsamples = 9667\nvalue = [258, 404, 565, 424, 503, 503, 315, 4974, 836, 885]"] ;
2 -> 3 ;
4 [label="X[484] <= 0.5\ngini = 0.475\nsamples = 6717\nvalue = [247, 71, 401, 93, 336, 92, 166, 4803, 18, 490]"] ;
3 -> 4 ;
5 [label="X[153] <= 0.5\ngini = 0.262\nsamples = 5435\nvalue = [131, 71, 318, 87, 14, 64, 19, 4655, 13, 63]"] ;
4 -> 5 ;
6 [label="X[594] <= 2.0\ngini = 0.128\nsamples = 4946\nvalue = [79, 51, 57, 35, 13, 22, 7, 4617, 7, 58]"] ;
5 -> 6 ;
7 [label="X[156] <= 0.5\ngini = 0.096\nsamples = 4857\nvalue = [1, 49, 57, 31, 13, 17, 7, 4617, 7, 58]"] ;
6 -> 7 ;
8 [label="X[554] <= 3.5\ngini = 0.075\nsamples = 4796\nvalue = [0, 16, 52, 31, 12, 11, 3, 4612, 3, 56]"] ;
7 -> 8 ;
9 [label="X[159] <= 11.5\ngini = 0.063\nsamples = 4748\nvalue = [0, 16, 29, 28, 12, 7, 3, 4596, 3, 54]"] ;
8 -> 9 ;
10 [label="X[377] <= 9.0\ngini = 0.058\nsamples = 4736\nvalue = [0, 6, 29, 28, 11, 6, 3, 4596, 3, 54]"] ;
9 -> 10 ;
11 [label="X[457] <= 159.0\ngini = 0.05\nsamples = 4702\nvalue = [0, 6, 29, 27, 5, 4, 3, 4582, 2, 44]"] ;
10 -> 11 ;
12 [label="X[511] <= 113.0\ngini = 0.046\nsamples = 4690\nvalue = [0, 6, 29, 27, 5, 3, 3, 4580, 2, 35]"] ;
11 -> 12 ;
13 [label="X[461] <= 225.5\ngini = 0.043\nsamples = 4683\nvalue = [0, 6, 29, 27, 4, 3, 0, 4580, 2, 32]"] ;
12 -> 13 ;
14 [label="X[639] <= 39.0\ngini = 0.031\nsamples = 4557\nvalue = [0, 5, 23, 11, 2, 2, 0, 4485, 1, 28]"] ;
13 -> 14 ;
15 [label="X[151] <= 193.0\ngini = 0.029\nsamples = 4551\nvalue = [0, 5, 18, 11, 2, 2, 0, 4484, 1, 28]"] ;
14 -> 15 ;
16 [label="X[609] <= 235.5\ngini = 0.027\nsamples = 4545\nvalue = [0, 5, 15, 10, 2, 2, 0, 4482, 1, 28]"] ;
15 -> 16 ;
17 [label="X[500] <= 1.0\ngini = 0.027\nsamples = 4543\nvalue = [0, 5, 13, 10, 2, 2, 0, 4482, 1, 28]"] ;
16 -> 17 ;
18 [label="X[350] <= 0.5\ngini = 0.025\nsamples = 4533\nvalue = [0, 5, 9, 10, 2, 2, 0, 4476, 1, 28]"] ;
17 -> 18 ;
19 [label="X[675] <= 30.0\ngini = 0.013\nsamples = 4097\nvalue = [0, 3, 8, 7, 1, 0, 0, 4071, 1, 6]"] ;
18 -> 19 ;
20 [label="X[695] <= 46.5\ngini = 0.012\nsamples = 4096\nvalue = [0, 3, 8, 6, 1, 0, 0, 4071, 1, 6]"] ;
19 -> 20 ;
21 [label="X[388] <= 159.0\ngini = 0.012\nsamples = 4095\nvalue = [0, 3, 7, 6, 1, 0, 0, 4071, 1, 6]"] ;
20 -> 21 ;
22 [label="X[263] <= 5.0\ngini = 0.011\nsamples = 4094\nvalue = [0, 3, 6, 6, 1, 0, 0, 4071, 1, 6]"] ;
21 -> 22 ;
23 [label="X[691] <= 8.0\ngini = 0.09\nsamples = 344\nvalue = [0, 3, 5, 4, 1, 0, 0, 328, 1, 2]"] ;
22 -> 23 ;
24 [label="X[434] <= 249.0\ngini = 0.064\nsamples = 335\nvalue = [0, 3, 2, 3, 0, 0, 0, 324, 1, 2]"] ;
23 -> 24 ;
25 [label="X[303] <= 149.5\ngini = 0.053\nsamples = 332\nvalue = [0, 1, 2, 3, 0, 0, 0, 323, 1, 2]"] ;
24 -> 25 ;
26 [label="X[607] <= 200.5\ngini = 0.048\nsamples = 331\nvalue = [0, 1, 1, 3, 0, 0, 0, 323, 1, 2]"] ;
25 -> 26 ;
27 [label="X[255] <= 244.0\ngini = 0.042\nsamples = 330\nvalue = [0, 1, 0, 3, 0, 0, 0, 323, 1, 2]"] ;
26 -> 27 ;
28 [label="X[578] <= 172.0\ngini = 0.036\nsamples = 329\nvalue = [0, 1, 0, 2, 0, 0, 0, 323, 1, 2]"] ;
27 -> 28 ;
29 [label="X[256] <= 204.0\ngini = 0.019\nsamples = 319\nvalue = [0, 1, 0, 1, 0, 0, 0, 316, 0, 1]"] ;
28 -> 29 ;
30 [label="X[265] <= 252.5\ngini = 0.013\nsamples = 317\nvalue = [0, 0, 0, 1, 0, 0, 0, 315, 0, 1]"] ;
29 -> 30 ;
31 [label="X[462] <= 254.5\ngini = 0.006\nsamples = 312\nvalue = [0, 0, 0, 1, 0, 0, 0, 311, 0, 0]"] ;
30 -> 31 ;
32 [label="gini = 0.0\nsamples = 300\nvalue = [0, 0, 0, 0, 0, 0, 0, 300, 0, 0]"] ;
31 -> 32 ;
33 [label="X[603] <= 107.5\ngini = 0.153\nsamples = 12\nvalue = [0, 0, 0, 1, 0, 0, 0, 11, 0, 0]"] ;
31 -> 33 ;
34 [label="gini = 0.0\nsamples = 11\nvalue = [0, 0, 0, 0, 0, 0, 0, 11, 0, 0]"] ;
33 -> 34 ;
35 [label="gini = 0.0\nsamples = 1\nvalue = [0, 0, 0, 1, 0, 0, 0, 0, 0, 0]"] ;
33 -> 35 ;
36 [label="X[544] <= 150.0\ngini = 0.32\nsamples = 5\nvalue = [0, 0, 0, 0, 0, 0, 0, 4, 0, 1]"] ;
30 -> 36 ;
37 [label="gini = 0.0\nsamples = 4\nvalue = [0, 0, 0, 0, 0, 0, 0, 4, 0, 0]"] ;
36 -> 37 ;
38 [label="gini = 0.0\nsamples = 1\nvalue = [0, 0, 0, 0, 0, 0, 0, 0, 0, 1]"] ;
36 -> 38 ;
39 [label="X[284] <= 234.0\ngini = 0.5\nsamples = 2\nvalue = [0, 1, 0, 0, 0, 0, 0, 1, 0, 0]"] ;
29 -> 39 ;
40 [label="gini = 0.0\nsamples = 1\nvalue = [0, 1, 0, 0, 0, 0, 0, 0, 0, 0]"] ;
39 -> 40 ;
41 [label="gini = 0.0\nsamples = 1\nvalue = [0, 0, 0, 0, 0, 0, 0, 1, 0, 0]"] ;
39 -> 41 ;
42 [label="X[655] <= 9.5\ngini = 0.48\nsamples = 10\nvalue = [0, 0, 0, 1, 0, 0, 0, 7, 1, 1]"] ;
28 -> 42 ;
43 [label="gini = 0.0\nsamples = 7\nvalue = [0, 0, 0, 0, 0, 0, 0, 7, 0, 0]"] ;
42 -> 43 ;
44 [label="X[329] <= 119.0\ngini = 0.667\nsamples = 3\nvalue = [0, 0, 0, 1, 0, 0, 0, 0, 1, 1]"] ;
42 -> 44 ;
45 [label="X[438] <= 127.0\ngini = 0.5\nsamples = 2\nvalue = [0, 0, 0, 1, 0, 0, 0, 0, 1, 0]"] ;
44 -> 45 ;
46 [label="gini = 0.0\nsamples = 1\nvalue = [0, 0, 0, 1, 0, 0, 0, 0, 0, 0]"] ;
45 -> 46 ;
47 [label="gini = 0.0\nsamples = 1\nvalue = [0, 0, 0, 0, 0, 0, 0, 0, 1, 0]"] ;
45 -> 47 ;
48 [label="gini = 0.0\nsamples = 1\nvalue = [0, 0, 0, 0, 0, 0, 0, 0, 0, 1]"] ;
44 -> 48 ;
49 [label="gini = 0.0\nsamples = 1\nvalue = [0, 0, 0, 1, 0, 0, 0, 0, 0, 0]"] ;
27 -> 49 ;
50 [label="gini = 0.0\nsamples = 1\nvalue = [0, 0, 1, 0, 0, 0, 0, 0, 0, 0]"] ;
26 -> 50 ;
51 [label="gini = 0.0\nsamples = 1\nvalue = [0, 0, 1, 0, 0, 0, 0, 0, 0, 0]"] ;
25 -> 51 ;
52 [label="X[348] <= 14.0\ngini = 0.444\nsamples = 3\nvalue = [0, 2, 0, 0, 0, 0, 0, 1, 0, 0]"] ;
24 -> 52 ;
53 [label="gini = 0.0\nsamples = 1\nvalue = [0, 0, 0, 0, 0, 0, 0, 1, 0, 0]"] ;
52 -> 53 ;
54 [label="gini = 0.0\nsamples = 2\nvalue = [0, 2, 0, 0, 0, 0, 0, 0, 0, 0]"] ;
52 -> 54 ;
55 [label="X[176] <= 21.0\ngini = 0.667\nsamples = 9\nvalue = [0, 0, 3, 1, 1, 0, 0, 4, 0, 0]"] ;
23 -> 55 ;
56 [label="gini = 0.0\nsamples = 4\nvalue = [0, 0, 0, 0, 0, 0, 0, 4, 0, 0]"] ;
55 -> 56 ;
57 [label="X[714] <= 2.5\ngini = 0.56\nsamples = 5\nvalue = [0, 0, 3, 1, 1, 0, 0, 0, 0, 0]"] ;
55 -> 57 ;
58 [label="X[658] <= 24.5\ngini = 0.5\nsamples = 2\nvalue = [0, 0, 0, 1, 1, 0, 0, 0, 0, 0]"] ;
57 -> 58 ;
59 [label="gini = 0.0\nsamples = 1\nvalue = [0, 0, 0, 1, 0, 0, 0, 0, 0, 0]"] ;
58 -> 59 ;
60 [label="gini = 0.0\nsamples = 1\nvalue = [0, 0, 0, 0, 1, 0, 0, 0, 0, 0]"] ;
58 -> 60 ;
61 [label="gini = 0.0\nsamples = 3\nvalue = [0, 0, 3, 0, 0, 0, 0, 0, 0, 0]"] ;
57 -> 61 ;
62 [label="X[461] <= 206.0\ngini = 0.004\nsamples = 3750\nvalue = [0, 0, 1, 2, 0, 0, 0, 3743, 0, 4]"] ;
22 -> 62 ;
63 [label="X[184] <= 253.5\ngini = 0.003\nsamples = 3725\nvalue = [0, 0, 0, 2, 0, 0, 0, 3719, 0, 4]"] ;
62 -> 63 ;
64 [label="X[407] <= 254.5\ngini = 0.002\nsamples = 3652\nvalue = [0, 0, 0, 1, 0, 0, 0, 3648, 0, 3]"] ;
63 -> 64 ;
65 [label="X[496] <= 234.5\ngini = 0.002\nsamples = 3617\nvalue = [0, 0, 0, 1, 0, 0, 0, 3614, 0, 2]"] ;
64 -> 65 ;
66 [label="X[264] <= 0.5\ngini = 0.001\nsamples = 3568\nvalue = [0, 0, 0, 0, 0, 0, 0, 3566, 0, 2]"] ;
65 -> 66 ;
67 [label="X[320] <= 244.0\ngini = 0.039\nsamples = 50\nvalue = [0, 0, 0, 0, 0, 0, 0, 49, 0, 1]"] ;
66 -> 67 ;
68 [label="gini = 0.0\nsamples = 49\nvalue = [0, 0, 0, 0, 0, 0, 0, 49, 0, 0]"] ;
67 -> 68 ;
69 [label="gini = 0.0\nsamples = 1\nvalue = [0, 0, 0, 0, 0, 0, 0, 0, 0, 1]"] ;
67 -> 69 ;
70 [label="X[210] <= 254.5\ngini = 0.001\nsamples = 3518\nvalue = [0, 0, 0, 0, 0, 0, 0, 3517, 0, 1]"] ;
66 -> 70 ;
71 [label="gini = 0.0\nsamples = 3382\nvalue = [0, 0, 0, 0, 0, 0, 0, 3382, 0, 0]"] ;
70 -> 71 ;
72 [label="X[240] <= 112.0\ngini = 0.015\nsamples = 136\nvalue = [0, 0, 0, 0, 0, 0, 0, 135, 0, 1]"] ;
70 -> 72 ;
73 [label="gini = 0.0\nsamples = 1\nvalue = [0, 0, 0, 0, 0, 0, 0, 0, 0, 1]"] ;
72 -> 73 ;
74 [label="gini = 0.0\nsamples = 135\nvalue = [0, 0, 0, 0, 0, 0, 0, 135, 0, 0]"] ;
72 -> 74 ;
75 [label="X[739] <= 244.5\ngini = 0.04\nsamples = 49\nvalue = [0, 0, 0, 1, 0, 0, 0, 48, 0, 0]"] ;
65 -> 75 ;
76 [label="gini = 0.0\nsamples = 48\nvalue = [0, 0, 0, 0, 0, 0, 0, 48, 0, 0]"] ;
75 -> 76 ;
77 [label="gini = 0.0\nsamples = 1\nvalue = [0, 0, 0, 1, 0, 0, 0, 0, 0, 0]"] ;
75 -> 77 ;
78 [label="X[269] <= 99.5\ngini = 0.056\nsamples = 35\nvalue = [0, 0, 0, 0, 0, 0, 0, 34, 0, 1]"] ;
64 -> 78 ;
79 [label="gini = 0.0\nsamples = 1\nvalue = [0, 0, 0, 0, 0, 0, 0, 0, 0, 1]"] ;
78 -> 79 ;
80 [label="gini = 0.0\nsamples = 34\nvalue = [0, 0, 0, 0, 0, 0, 0, 34, 0, 0]"] ;
78 -> 80 ;
81 [label="X[463] <= 4.0\ngini = 0.054\nsamples = 73\nvalue = [0, 0, 0, 1, 0, 0, 0, 71, 0, 1]"] ;
63 -> 81 ;
82 [label="gini = 0.0\nsamples = 1\nvalue = [0, 0, 0, 1, 0, 0, 0, 0, 0, 0]"] ;
81 -> 82 ;
83 [label="X[295] <= 245.5\ngini = 0.027\nsamples = 72\nvalue = [0, 0, 0, 0, 0, 0, 0, 71, 0, 1]"] ;
81 -> 83 ;
84 [label="gini = 0.0\nsamples = 71\nvalue = [0, 0, 0, 0, 0, 0, 0, 71, 0, 0]"] ;
83 -> 84 ;
85 [label="gini = 0.0\nsamples = 1\nvalue = [0, 0, 0, 0, 0, 0, 0, 0, 0, 1]"] ;
83 -> 85 ;
86 [label="X[689] <= 74.5\ngini = 0.077\nsamples = 25\nvalue = [0, 0, 1, 0, 0, 0, 0, 24, 0, 0]"] ;
62 -> 86 ;
87 [label="gini = 0.0\nsamples = 24\nvalue = [0, 0, 0, 0, 0, 0, 0, 24, 0, 0]"] ;
86 -> 87 ;
88 [label="gini = 0.0\nsamples = 1\nvalue = [0, 0, 1, 0, 0, 0, 0, 0, 0, 0]"] ;
86 -> 88 ;
89 [label="gini = 0.0\nsamples = 1\nvalue = [0, 0, 1, 0, 0, 0, 0, 0, 0, 0]"] ;
21 -> 89 ;
90 [label="gini = 0.0\nsamples = 1\nvalue = [0, 0, 1, 0, 0, 0, 0, 0, 0, 0]"] ;
20 -> 90 ;
91 [label="gini = 0.0\nsamples = 1\nvalue = [0, 0, 0, 1, 0, 0, 0, 0, 0, 0]"] ;
19 -> 91 ;
92 [label="X[182] <= 162.0\ngini = 0.135\nsamples = 436\nvalue = [0, 2, 1, 3, 1, 2, 0, 405, 0, 22]"] ;
18 -> 92 ;
93 [label="X[297] <= 0.5\ngini = 0.087\nsamples = 401\nvalue = [0, 2, 1, 2, 1, 2, 0, 383, 0, 10]"] ;
92 -> 93 ;
94 [label="X[211] <= 200.5\ngini = 0.635\nsamples = 21\nvalue = [0, 2, 1, 1, 1, 1, 0, 12, 0, 3]"] ;
93 -> 94 ;
95 [label="X[379] <= 253.5\ngini = 0.255\nsamples = 14\nvalue = [0, 0, 1, 0, 1, 0, 0, 12, 0, 0]"] ;
94 -> 95 ;
96 [label="gini = 0.0\nsamples = 12\nvalue = [0, 0, 0, 0, 0, 0, 0, 12, 0, 0]"] ;
95 -> 96 ;
97 [label="X[352] <= 156.5\ngini = 0.5\nsamples = 2\nvalue = [0, 0, 1, 0, 1, 0, 0, 0, 0, 0]"] ;
95 -> 97 ;
98 [label="gini = 0.0\nsamples = 1\nvalue = [0, 0, 0, 0, 1, 0, 0, 0, 0, 0]"] ;
97 -> 98 ;
99 [label="gini = 0.0\nsamples = 1\nvalue = [0, 0, 1, 0, 0, 0, 0, 0, 0, 0]"] ;
97 -> 99 ;
100 [label="X[241] <= 140.5\ngini = 0.694\nsamples = 7\nvalue = [0, 2, 0, 1, 0, 1, 0, 0, 0, 3]"] ;
94 -> 100 ;
101 [label="X[265] <= 51.5\ngini = 0.625\nsamples = 4\nvalue = [0, 2, 0, 1, 0, 1, 0, 0, 0, 0]"] ;
100 -> 101 ;
102 [label="gini = 0.0\nsamples = 2\nvalue = [0, 2, 0, 0, 0, 0, 0, 0, 0, 0]"] ;
101 -> 102 ;
103 [label="X[411] <= 116.5\ngini = 0.5\nsamples = 2\nvalue = [0, 0, 0, 1, 0, 1, 0, 0, 0, 0]"] ;
101 -> 103 ;
104 [label="gini = 0.0\nsamples = 1\nvalue = [0, 0, 0, 1, 0, 0, 0, 0, 0, 0]"] ;
103 -> 104 ;
105 [label="gini = 0.0\nsamples = 1\nvalue = [0, 0, 0, 0, 0, 1, 0, 0, 0, 0]"] ;
103 -> 105 ;
106 [label="gini = 0.0\nsamples = 3\nvalue = [0, 0, 0, 0, 0, 0, 0, 0, 0, 3]"] ;
100 -> 106 ;
107 [label="X[579] <= 253.5\ngini = 0.046\nsamples = 380\nvalue = [0, 0, 0, 1, 0, 1, 0, 371, 0, 7]"] ;
93 -> 107 ;
108 [label="X[733] <= 136.0\ngini = 0.041\nsamples = 379\nvalue = [0, 0, 0, 1, 0, 0, 0, 371, 0, 7]"] ;
107 -> 108 ;
109 [label="X[296] <= 12.5\ngini = 0.036\nsamples = 378\nvalue = [0, 0, 0, 1, 0, 0, 0, 371, 0, 6]"] ;
108 -> 109 ;
110 [label="X[245] <= 10.0\ngini = 0.5\nsamples = 2\nvalue = [0, 0, 0, 0, 0, 0, 0, 1, 0, 1]"] ;
109 -> 110 ;
111 [label="gini = 0.0\nsamples = 1\nvalue = [0, 0, 0, 0, 0, 0, 0, 1, 0, 0]"] ;
110 -> 111 ;
112 [label="gini = 0.0\nsamples = 1\nvalue = [0, 0, 0, 0, 0, 0, 0, 0, 0, 1]"] ;
110 -> 112 ;
113 [label="X[172] <= 145.0\ngini = 0.031\nsamples = 376\nvalue = [0, 0, 0, 1, 0, 0, 0, 370, 0, 5]"] ;
109 -> 113 ;
114 [label="X[209] <= 254.5\ngini = 0.026\nsamples = 373\nvalue = [0, 0, 0, 0, 0, 0, 0, 368, 0, 5]"] ;
113 -> 114 ;
115 [label="X[376] <= 9.5\ngini = 0.017\nsamples = 360\nvalue = [0, 0, 0, 0, 0, 0, 0, 357, 0, 3]"] ;
114 -> 115 ;
116 [label="gini = 0.0\nsamples = 327\nvalue = [0, 0, 0, 0, 0, 0, 0, 327, 0, 0]"] ;
115 -> 116 ;
117 [label="X[299] <= 5.0\ngini = 0.165\nsamples = 33\nvalue = [0, 0, 0, 0, 0, 0, 0, 30, 0, 3]"] ;
115 -> 117 ;
118 [label="gini = 0.0\nsamples = 2\nvalue = [0, 0, 0, 0, 0, 0, 0, 0, 0, 2]"] ;
117 -> 118 ;
119 [label="X[207] <= 179.0\ngini = 0.062\nsamples = 31\nvalue = [0, 0, 0, 0, 0, 0, 0, 30, 0, 1]"] ;
117 -> 119 ;
120 [label="gini = 0.0\nsamples = 30\nvalue = [0, 0, 0, 0, 0, 0, 0, 30, 0, 0]"] ;
119 -> 120 ;
121 [label="gini = 0.0\nsamples = 1\nvalue = [0, 0, 0, 0, 0, 0, 0, 0, 0, 1]"] ;
119 -> 121 ;
122 [label="X[268] <= 215.5\ngini = 0.26\nsamples = 13\nvalue = [0, 0, 0, 0, 0, 0, 0, 11, 0, 2]"] ;
114 -> 122 ;
123 [label="gini = 0.0\nsamples = 2\nvalue = [0, 0, 0, 0, 0, 0, 0, 0, 0, 2]"] ;
122 -> 123 ;
124 [label="gini = 0.0\nsamples = 11\nvalue = [0, 0, 0, 0, 0, 0, 0, 11, 0, 0]"] ;
122 -> 124 ;
125 [label="X[173] <= 197.5\ngini = 0.444\nsamples = 3\nvalue = [0, 0, 0, 1, 0, 0, 0, 2, 0, 0]"] ;
113 -> 125 ;
126 [label="gini = 0.0\nsamples = 1\nvalue = [0, 0, 0, 1, 0, 0, 0, 0, 0, 0]"] ;
125 -> 126 ;
127 [label="gini = 0.0\nsamples = 2\nvalue = [0, 0, 0, 0, 0, 0, 0, 2, 0, 0]"] ;
125 -> 127 ;
128 [label="gini = 0.0\nsamples = 1\nvalue = [0, 0, 0, 0, 0, 0, 0, 0, 0, 1]"] ;
108 -> 128 ;
129 [label="gini = 0.0\nsamples = 1\nvalue = [0, 0, 0, 0, 0, 1, 0, 0, 0, 0]"] ;
107 -> 129 ;
130 [label="X[321] <= 38.0\ngini = 0.487\nsamples = 35\nvalue = [0, 0, 0, 1, 0, 0, 0, 22, 0, 12]"] ;
92 -> 130 ;
131 [label="gini = 0.0\nsamples = 18\nvalue = [0, 0, 0, 0, 0, 0, 0, 18, 0, 0]"] ;
130 -> 131 ;
132 [label="X[264] <= 199.0\ngini = 0.443\nsamples = 17\nvalue = [0, 0, 0, 1, 0, 0, 0, 4, 0, 12]"] ;
130 -> 132 ;
133 [label="gini = 0.0\nsamples = 11\nvalue = [0, 0, 0, 0, 0, 0, 0, 0, 0, 11]"] ;
132 -> 133 ;
134 [label="X[574] <= 197.5\ngini = 0.5\nsamples = 6\nvalue = [0, 0, 0, 1, 0, 0, 0, 4, 0, 1]"] ;
132 -> 134 ;
135 [label="X[548] <= 115.0\ngini = 0.5\nsamples = 2\nvalue = [0, 0, 0, 1, 0, 0, 0, 0, 0, 1]"] ;
134 -> 135 ;
136 [label="gini = 0.0\nsamples = 1\nvalue = [0, 0, 0, 0, 0, 0, 0, 0, 0, 1]"] ;
135 -> 136 ;
137 [label="gini = 0.0\nsamples = 1\nvalue = [0, 0, 0, 1, 0, 0, 0, 0, 0, 0]"] ;
135 -> 137 ;
138 [label="gini = 0.0\nsamples = 4\nvalue = [0, 0, 0, 0, 0, 0, 0, 4, 0, 0]"] ;
134 -> 138 ;
139 [label="X[241] <= 119.5\ngini = 0.48\nsamples = 10\nvalue = [0, 0, 4, 0, 0, 0, 0, 6, 0, 0]"] ;
17 -> 139 ;
140 [label="gini = 0.0\nsamples = 4\nvalue = [0, 0, 4, 0, 0, 0, 0, 0, 0, 0]"] ;
139 -> 140 ;
141 [label="gini = 0.0\nsamples = 6\nvalue = [0, 0, 0, 0, 0, 0, 0, 6, 0, 0]"] ;
139 -> 141 ;
142 [label="gini = 0.0\nsamples = 2\nvalue = [0, 0, 2, 0, 0, 0, 0, 0, 0, 0]"] ;
16 -> 142 ;
143 [label="X[632] <= 151.0\ngini = 0.611\nsamples = 6\nvalue = [0, 0, 3, 1, 0, 0, 0, 2, 0, 0]"] ;
15 -> 143 ;
144 [label="X[551] <= 126.5\ngini = 0.444\nsamples = 3\nvalue = [0, 0, 0, 1, 0, 0, 0, 2, 0, 0]"] ;
143 -> 144 ;
145 [label="gini = 0.0\nsamples = 2\nvalue = [0, 0, 0, 0, 0, 0, 0, 2, 0, 0]"] ;
144 -> 145 ;
146 [label="gini = 0.0\nsamples = 1\nvalue = [0, 0, 0, 1, 0, 0, 0, 0, 0, 0]"] ;
144 -> 146 ;
147 [label="gini = 0.0\nsamples = 3\nvalue = [0, 0, 3, 0, 0, 0, 0, 0, 0, 0]"] ;
143 -> 147 ;
148 [label="X[290] <= 247.0\ngini = 0.278\nsamples = 6\nvalue = [0, 0, 5, 0, 0, 0, 0, 1, 0, 0]"] ;
14 -> 148 ;
149 [label="gini = 0.0\nsamples = 5\nvalue = [0, 0, 5, 0, 0, 0, 0, 0, 0, 0]"] ;
148 -> 149 ;
150 [label="gini = 0.0\nsamples = 1\nvalue = [0, 0, 0, 0, 0, 0, 0, 1, 0, 0]"] ;
148 -> 150 ;
151 [label="X[607] <= 16.0\ngini = 0.412\nsamples = 126\nvalue = [0, 1, 6, 16, 2, 1, 0, 95, 1, 4]"] ;
13 -> 151 ;
152 [label="X[404] <= 58.0\ngini = 0.353\nsamples = 119\nvalue = [0, 1, 6, 9, 2, 1, 0, 95, 1, 4]"] ;
151 -> 152 ;
153 [label="X[379] <= 30.5\ngini = 0.284\nsamples = 113\nvalue = [0, 1, 6, 9, 0, 0, 0, 95, 0, 2]"] ;
152 -> 153 ;
154 [label="X[467] <= 2.5\ngini = 0.602\nsamples = 30\nvalue = [0, 0, 4, 7, 0, 0, 0, 17, 0, 2]"] ;
153 -> 154 ;
155 [label="X[542] <= 15.5\ngini = 0.48\nsamples = 10\nvalue = [0, 0, 1, 7, 0, 0, 0, 1, 0, 1]"] ;
154 -> 155 ;
156 [label="X[399] <= 1.0\ngini = 0.219\nsamples = 8\nvalue = [0, 0, 0, 7, 0, 0, 0, 1, 0, 0]"] ;
155 -> 156 ;
157 [label="gini = 0.0\nsamples = 7\nvalue = [0, 0, 0, 7, 0, 0, 0, 0, 0, 0]"] ;
156 -> 157 ;
158 [label="gini = 0.0\nsamples = 1\nvalue = [0, 0, 0, 0, 0, 0, 0, 1, 0, 0]"] ;
156 -> 158 ;
159 [label="X[211] <= 247.0\ngini = 0.5\nsamples = 2\nvalue = [0, 0, 1, 0, 0, 0, 0, 0, 0, 1]"] ;
155 -> 159 ;
160 [label="gini = 0.0\nsamples = 1\nvalue = [0, 0, 0, 0, 0, 0, 0, 0, 0, 1]"] ;
159 -> 160 ;
161 [label="gini = 0.0\nsamples = 1\nvalue = [0, 0, 1, 0, 0, 0, 0, 0, 0, 0]"] ;
159 -> 161 ;
162 [label="X[571] <= 165.5\ngini = 0.335\nsamples = 20\nvalue = [0, 0, 3, 0, 0, 0, 0, 16, 0, 1]"] ;
154 -> 162 ;
163 [label="X[374] <= 38.0\ngini = 0.111\nsamples = 17\nvalue = [0, 0, 0, 0, 0, 0, 0, 16, 0, 1]"] ;
162 -> 163 ;
164 [label="gini = 0.0\nsamples = 16\nvalue = [0, 0, 0, 0, 0, 0, 0, 16, 0, 0]"] ;
163 -> 164 ;
165 [label="gini = 0.0\nsamples = 1\nvalue = [0, 0, 0, 0, 0, 0, 0, 0, 0, 1]"] ;
163 -> 165 ;
166 [label="gini = 0.0\nsamples = 3\nvalue = [0, 0, 3, 0, 0, 0, 0, 0, 0, 0]"] ;
162 -> 166 ;
167 [label="X[158] <= 182.0\ngini = 0.116\nsamples = 83\nvalue = [0, 1, 2, 2, 0, 0, 0, 78, 0, 0]"] ;
153 -> 167 ;
168 [label="X[341] <= 226.5\ngini = 0.094\nsamples = 82\nvalue = [0, 0, 2, 2, 0, 0, 0, 78, 0, 0]"] ;
167 -> 168 ;
169 [label="X[578] <= 227.0\ngini = 0.072\nsamples = 81\nvalue = [0, 0, 1, 2, 0, 0, 0, 78, 0, 0]"] ;
168 -> 169 ;
170 [label="X[718] <= 30.5\ngini = 0.049\nsamples = 80\nvalue = [0, 0, 1, 1, 0, 0, 0, 78, 0, 0]"] ;
169 -> 170 ;
171 [label="X[711] <= 250.5\ngini = 0.025\nsamples = 78\nvalue = [0, 0, 0, 1, 0, 0, 0, 77, 0, 0]"] ;
170 -> 171 ;
172 [label="gini = 0.0\nsamples = 75\nvalue = [0, 0, 0, 0, 0, 0, 0, 75, 0, 0]"] ;
171 -> 172 ;
173 [label="X[409] <= 248.5\ngini = 0.444\nsamples = 3\nvalue = [0, 0, 0, 1, 0, 0, 0, 2, 0, 0]"] ;
171 -> 173 ;
174 [label="gini = 0.0\nsamples = 1\nvalue = [0, 0, 0, 1, 0, 0, 0, 0, 0, 0]"] ;
173 -> 174 ;
175 [label="gini = 0.0\nsamples = 2\nvalue = [0, 0, 0, 0, 0, 0, 0, 2, 0, 0]"] ;
173 -> 175 ;
176 [label="X[260] <= 129.0\ngini = 0.5\nsamples = 2\nvalue = [0, 0, 1, 0, 0, 0, 0, 1, 0, 0]"] ;
170 -> 176 ;
177 [label="gini = 0.0\nsamples = 1\nvalue = [0, 0, 0, 0, 0, 0, 0, 1, 0, 0]"] ;
176 -> 177 ;
178 [label="gini = 0.0\nsamples = 1\nvalue = [0, 0, 1, 0, 0, 0, 0, 0, 0, 0]"] ;
176 -> 178 ;
179 [label="gini = 0.0\nsamples = 1\nvalue = [0, 0, 0, 1, 0, 0, 0, 0, 0, 0]"] ;
169 -> 179 ;
180 [label="gini = 0.0\nsamples = 1\nvalue = [0, 0, 1, 0, 0, 0, 0, 0, 0, 0]"] ;
168 -> 180 ;
181 [label="gini = 0.0\nsamples = 1\nvalue = [0, 1, 0, 0, 0, 0, 0, 0, 0, 0]"] ;
167 -> 181 ;
182 [label="X[488] <= 24.0\ngini = 0.722\nsamples = 6\nvalue = [0, 0, 0, 0, 2, 1, 0, 0, 1, 2]"] ;
152 -> 182 ;
183 [label="gini = 0.0\nsamples = 2\nvalue = [0, 0, 0, 0, 2, 0, 0, 0, 0, 0]"] ;
182 -> 183 ;
184 [label="X[492] <= 74.5\ngini = 0.625\nsamples = 4\nvalue = [0, 0, 0, 0, 0, 1, 0, 0, 1, 2]"] ;
182 -> 184 ;
185 [label="X[542] <= 95.5\ngini = 0.5\nsamples = 2\nvalue = [0, 0, 0, 0, 0, 1, 0, 0, 1, 0]"] ;
184 -> 185 ;
186 [label="gini = 0.0\nsamples = 1\nvalue = [0, 0, 0, 0, 0, 1, 0, 0, 0, 0]"] ;
185 -> 186 ;
187 [label="gini = 0.0\nsamples = 1\nvalue = [0, 0, 0, 0, 0, 0, 0, 0, 1, 0]"] ;
185 -> 187 ;
188 [label="gini = 0.0\nsamples = 2\nvalue = [0, 0, 0, 0, 0, 0, 0, 0, 0, 2]"] ;
184 -> 188 ;
189 [label="gini = 0.0\nsamples = 7\nvalue = [0, 0, 0, 7, 0, 0, 0, 0, 0, 0]"] ;
151 -> 189 ;
190 [label="X[520] <= 3.0\ngini = 0.612\nsamples = 7\nvalue = [0, 0, 0, 0, 1, 0, 3, 0, 0, 3]"] ;
12 -> 190 ;
191 [label="X[177] <= 17.0\ngini = 0.375\nsamples = 4\nvalue = [0, 0, 0, 0, 1, 0, 0, 0, 0, 3]"] ;
190 -> 191 ;
192 [label="gini = 0.0\nsamples = 3\nvalue = [0, 0, 0, 0, 0, 0, 0, 0, 0, 3]"] ;
191 -> 192 ;
193 [label="gini = 0.0\nsamples = 1\nvalue = [0, 0, 0, 0, 1, 0, 0, 0, 0, 0]"] ;
191 -> 193 ;
194 [label="gini = 0.0\nsamples = 3\nvalue = [0, 0, 0, 0, 0, 0, 3, 0, 0, 0]"] ;
190 -> 194 ;
195 [label="X[265] <= 154.5\ngini = 0.403\nsamples = 12\nvalue = [0, 0, 0, 0, 0, 1, 0, 2, 0, 9]"] ;
11 -> 195 ;
196 [label="gini = 0.0\nsamples = 9\nvalue = [0, 0, 0, 0, 0, 0, 0, 0, 0, 9]"] ;
195 -> 196 ;
197 [label="X[382] <= 11.0\ngini = 0.444\nsamples = 3\nvalue = [0, 0, 0, 0, 0, 1, 0, 2, 0, 0]"] ;
195 -> 197 ;
198 [label="gini = 0.0\nsamples = 1\nvalue = [0, 0, 0, 0, 0, 1, 0, 0, 0, 0]"] ;
197 -> 198 ;
199 [label="gini = 0.0\nsamples = 2\nvalue = [0, 0, 0, 0, 0, 0, 0, 2, 0, 0]"] ;
197 -> 199 ;
200 [label="X[291] <= 231.5\ngini = 0.708\nsamples = 34\nvalue = [0, 0, 0, 1, 6, 2, 0, 14, 1, 10]"] ;
10 -> 200 ;
201 [label="X[209] <= 63.5\ngini = 0.676\nsamples = 21\nvalue = [0, 0, 0, 1, 6, 2, 0, 1, 1, 10]"] ;
200 -> 201 ;
202 [label="X[491] <= 51.5\ngini = 0.58\nsamples = 10\nvalue = [0, 0, 0, 0, 6, 2, 0, 1, 1, 0]"] ;
201 -> 202 ;
203 [label="X[212] <= 123.0\ngini = 0.625\nsamples = 4\nvalue = [0, 0, 0, 0, 0, 2, 0, 1, 1, 0]"] ;
202 -> 203 ;
204 [label="X[397] <= 54.5\ngini = 0.5\nsamples = 2\nvalue = [0, 0, 0, 0, 0, 0, 0, 1, 1, 0]"] ;
203 -> 204 ;
205 [label="gini = 0.0\nsamples = 1\nvalue = [0, 0, 0, 0, 0, 0, 0, 0, 1, 0]"] ;
204 -> 205 ;
206 [label="gini = 0.0\nsamples = 1\nvalue = [0, 0, 0, 0, 0, 0, 0, 1, 0, 0]"] ;
204 -> 206 ;
207 [label="gini = 0.0\nsamples = 2\nvalue = [0, 0, 0, 0, 0, 2, 0, 0, 0, 0]"] ;
203 -> 207 ;
208 [label="gini = 0.0\nsamples = 6\nvalue = [0, 0, 0, 0, 6, 0, 0, 0, 0, 0]"] ;
202 -> 208 ;
209 [label="X[172] <= 50.5\ngini = 0.165\nsamples = 11\nvalue = [0, 0, 0, 1, 0, 0, 0, 0, 0, 10]"] ;
201 -> 209 ;
210 [label="gini = 0.0\nsamples = 10\nvalue = [0, 0, 0, 0, 0, 0, 0, 0, 0, 10]"] ;
209 -> 210 ;
211 [label="gini = 0.0\nsamples = 1\nvalue = [0, 0, 0, 1, 0, 0, 0, 0, 0, 0]"] ;
209 -> 211 ;
212 [label="gini = 0.0\nsamples = 13\nvalue = [0, 0, 0, 0, 0, 0, 0, 13, 0, 0]"] ;
200 -> 212 ;
213 [label="X[684] <= 30.0\ngini = 0.292\nsamples = 12\nvalue = [0, 10, 0, 0, 1, 1, 0, 0, 0, 0]"] ;
9 -> 213 ;
214 [label="gini = 0.0\nsamples = 10\nvalue = [0, 10, 0, 0, 0, 0, 0, 0, 0, 0]"] ;
213 -> 214 ;
215 [label="X[373] <= 126.5\ngini = 0.5\nsamples = 2\nvalue = [0, 0, 0, 0, 1, 1, 0, 0, 0, 0]"] ;
213 -> 215 ;
216 [label="gini = 0.0\nsamples = 1\nvalue = [0, 0, 0, 0, 0, 1, 0, 0, 0, 0]"] ;
215 -> 216 ;
217 [label="gini = 0.0\nsamples = 1\nvalue = [0, 0, 0, 0, 1, 0, 0, 0, 0, 0]"] ;
215 -> 217 ;
218 [label="X[555] <= 77.5\ngini = 0.647\nsamples = 48\nvalue = [0, 0, 23, 3, 0, 4, 0, 16, 0, 2]"] ;
8 -> 218 ;
219 [label="X[298] <= 14.5\ngini = 0.683\nsamples = 34\nvalue = [0, 0, 9, 3, 0, 4, 0, 16, 0, 2]"] ;
218 -> 219 ;
220 [label="X[491] <= 7.0\ngini = 0.628\nsamples = 11\nvalue = [0, 0, 5, 2, 0, 4, 0, 0, 0, 0]"] ;
219 -> 220 ;
221 [label="X[687] <= 7.0\ngini = 0.444\nsamples = 6\nvalue = [0, 0, 0, 2, 0, 4, 0, 0, 0, 0]"] ;
220 -> 221 ;
222 [label="gini = 0.0\nsamples = 2\nvalue = [0, 0, 0, 2, 0, 0, 0, 0, 0, 0]"] ;
221 -> 222 ;
223 [label="gini = 0.0\nsamples = 4\nvalue = [0, 0, 0, 0, 0, 4, 0, 0, 0, 0]"] ;
221 -> 223 ;
224 [label="gini = 0.0\nsamples = 5\nvalue = [0, 0, 5, 0, 0, 0, 0, 0, 0, 0]"] ;
220 -> 224 ;
225 [label="X[583] <= 84.5\ngini = 0.476\nsamples = 23\nvalue = [0, 0, 4, 1, 0, 0, 0, 16, 0, 2]"] ;
219 -> 225 ;
226 [label="X[184] <= 55.0\ngini = 0.277\nsamples = 19\nvalue = [0, 0, 1, 0, 0, 0, 0, 16, 0, 2]"] ;
225 -> 226 ;
227 [label="X[180] <= 151.0\ngini = 0.111\nsamples = 17\nvalue = [0, 0, 1, 0, 0, 0, 0, 16, 0, 0]"] ;
226 -> 227 ;
228 [label="gini = 0.0\nsamples = 16\nvalue = [0, 0, 0, 0, 0, 0, 0, 16, 0, 0]"] ;
227 -> 228 ;
229 [label="gini = 0.0\nsamples = 1\nvalue = [0, 0, 1, 0, 0, 0, 0, 0, 0, 0]"] ;
227 -> 229 ;
230 [label="gini = 0.0\nsamples = 2\nvalue = [0, 0, 0, 0, 0, 0, 0, 0, 0, 2]"] ;
226 -> 230 ;
231 [label="X[201] <= 239.0\ngini = 0.375\nsamples = 4\nvalue = [0, 0, 3, 1, 0, 0, 0, 0, 0, 0]"] ;
225 -> 231 ;
232 [label="gini = 0.0\nsamples = 3\nvalue = [0, 0, 3, 0, 0, 0, 0, 0, 0, 0]"] ;
231 -> 232 ;
233 [label="gini = 0.0\nsamples = 1\nvalue = [0, 0, 0, 1, 0, 0, 0, 0, 0, 0]"] ;
231 -> 233 ;
234 [label="gini = 0.0\nsamples = 14\nvalue = [0, 0, 14, 0, 0, 0, 0, 0, 0, 0]"] ;
218 -> 234 ;
235 [label="X[379] <= 100.5\ngini = 0.674\nsamples = 61\nvalue = [1, 33, 5, 0, 1, 6, 4, 5, 4, 2]"] ;
7 -> 235 ;
236 [label="X[100] <= 26.5\ngini = 0.818\nsamples = 22\nvalue = [1, 0, 5, 0, 1, 6, 4, 2, 1, 2]"] ;
235 -> 236 ;
237 [label="X[572] <= 158.5\ngini = 0.778\nsamples = 18\nvalue = [1, 0, 5, 0, 1, 6, 0, 2, 1, 2]"] ;
236 -> 237 ;
238 [label="X[632] <= 113.5\ngini = 0.722\nsamples = 13\nvalue = [1, 0, 0, 0, 1, 6, 0, 2, 1, 2]"] ;
237 -> 238 ;
239 [label="X[156] <= 214.5\ngini = 0.778\nsamples = 6\nvalue = [1, 0, 0, 0, 1, 0, 0, 2, 1, 1]"] ;
238 -> 239 ;
240 [label="X[291] <= 5.5\ngini = 0.75\nsamples = 4\nvalue = [1, 0, 0, 0, 1, 0, 0, 0, 1, 1]"] ;
239 -> 240 ;
241 [label="gini = 0.0\nsamples = 1\nvalue = [0, 0, 0, 0, 1, 0, 0, 0, 0, 0]"] ;
240 -> 241 ;
242 [label="X[543] <= 96.0\ngini = 0.667\nsamples = 3\nvalue = [1, 0, 0, 0, 0, 0, 0, 0, 1, 1]"] ;
240 -> 242 ;
243 [label="X[181] <= 26.5\ngini = 0.5\nsamples = 2\nvalue = [1, 0, 0, 0, 0, 0, 0, 0, 0, 1]"] ;
242 -> 243 ;
244 [label="gini = 0.0\nsamples = 1\nvalue = [1, 0, 0, 0, 0, 0, 0, 0, 0, 0]"] ;
243 -> 244 ;
245 [label="gini = 0.0\nsamples = 1\nvalue = [0, 0, 0, 0, 0, 0, 0, 0, 0, 1]"] ;
243 -> 245 ;
246 [label="gini = 0.0\nsamples = 1\nvalue = [0, 0, 0, 0, 0, 0, 0, 0, 1, 0]"] ;
242 -> 246 ;
247 [label="gini = 0.0\nsamples = 2\nvalue = [0, 0, 0, 0, 0, 0, 0, 2, 0, 0]"] ;
239 -> 247 ;
248 [label="X[237] <= 90.0\ngini = 0.245\nsamples = 7\nvalue = [0, 0, 0, 0, 0, 6, 0, 0, 0, 1]"] ;
238 -> 248 ;
249 [label="gini = 0.0\nsamples = 1\nvalue = [0, 0, 0, 0, 0, 0, 0, 0, 0, 1]"] ;
248 -> 249 ;
250 [label="gini = 0.0\nsamples = 6\nvalue = [0, 0, 0, 0, 0, 6, 0, 0, 0, 0]"] ;
248 -> 250 ;
251 [label="gini = 0.0\nsamples = 5\nvalue = [0, 0, 5, 0, 0, 0, 0, 0, 0, 0]"] ;
237 -> 251 ;
252 [label="gini = 0.0\nsamples = 4\nvalue = [0, 0, 0, 0, 0, 0, 4, 0, 0, 0]"] ;
236 -> 252 ;
253 [label="X[433] <= 80.5\ngini = 0.272\nsamples = 39\nvalue = [0, 33, 0, 0, 0, 0, 0, 3, 3, 0]"] ;
235 -> 253 ;
254 [label="X[486] <= 51.0\ngini = 0.108\nsamples = 35\nvalue = [0, 33, 0, 0, 0, 0, 0, 2, 0, 0]"] ;
253 -> 254 ;
255 [label="gini = 0.0\nsamples = 33\nvalue = [0, 33, 0, 0, 0, 0, 0, 0, 0, 0]"] ;
254 -> 255 ;
256 [label="gini = 0.0\nsamples = 2\nvalue = [0, 0, 0, 0, 0, 0, 0, 2, 0, 0]"] ;
254 -> 256 ;
257 [label="X[464] <= 6.5\ngini = 0.375\nsamples = 4\nvalue = [0, 0, 0, 0, 0, 0, 0, 1, 3, 0]"] ;
253 -> 257 ;
258 [label="gini = 0.0\nsamples = 1\nvalue = [0, 0, 0, 0, 0, 0, 0, 1, 0, 0]"] ;
257 -> 258 ;
259 [label="gini = 0.0\nsamples = 3\nvalue = [0, 0, 0, 0, 0, 0, 0, 0, 3, 0]"] ;
257 -> 259 ;
260 [label="X[408] <= 15.0\ngini = 0.226\nsamples = 89\nvalue = [78, 2, 0, 4, 0, 5, 0, 0, 0, 0]"] ;
6 -> 260 ;
261 [label="X[203] <= 5.0\ngini = 0.025\nsamples = 78\nvalue = [77, 0, 0, 0, 0, 1, 0, 0, 0, 0]"] ;
260 -> 261 ;
262 [label="gini = 0.0\nsamples = 77\nvalue = [77, 0, 0, 0, 0, 0, 0, 0, 0, 0]"] ;
261 -> 262 ;
263 [label="gini = 0.0\nsamples = 1\nvalue = [0, 0, 0, 0, 0, 1, 0, 0, 0, 0]"] ;
261 -> 263 ;
264 [label="X[291] <= 2.5\ngini = 0.694\nsamples = 11\nvalue = [1, 2, 0, 4, 0, 4, 0, 0, 0, 0]"] ;
260 -> 264 ;
265 [label="gini = 0.0\nsamples = 4\nvalue = [0, 0, 0, 4, 0, 0, 0, 0, 0, 0]"] ;
264 -> 265 ;
266 [label="X[465] <= 12.5\ngini = 0.571\nsamples = 7\nvalue = [1, 2, 0, 0, 0, 4, 0, 0, 0, 0]"] ;
264 -> 266 ;
267 [label="X[598] <= 42.0\ngini = 0.444\nsamples = 3\nvalue = [1, 2, 0, 0, 0, 0, 0, 0, 0, 0]"] ;
266 -> 267 ;
268 [label="gini = 0.0\nsamples = 1\nvalue = [1, 0, 0, 0, 0, 0, 0, 0, 0, 0]"] ;
267 -> 268 ;
269 [label="gini = 0.0\nsamples = 2\nvalue = [0, 2, 0, 0, 0, 0, 0, 0, 0, 0]"] ;
267 -> 269 ;
270 [label="gini = 0.0\nsamples = 4\nvalue = [0, 0, 0, 0, 0, 4, 0, 0, 0, 0]"] ;
266 -> 270 ;
271 [label="X[571] <= 5.0\ngini = 0.677\nsamples = 489\nvalue = [52, 20, 261, 52, 1, 42, 12, 38, 6, 5]"] ;
5 -> 271 ;
272 [label="X[426] <= 10.0\ngini = 0.827\nsamples = 177\nvalue = [47, 13, 20, 40, 1, 27, 8, 15, 1, 5]"] ;
271 -> 272 ;
273 [label="X[654] <= 7.5\ngini = 0.808\nsamples = 128\nvalue = [2, 13, 19, 40, 1, 27, 6, 15, 1, 4]"] ;
272 -> 273 ;
274 [label="X[203] <= 28.0\ngini = 0.789\nsamples = 47\nvalue = [0, 8, 16, 1, 1, 2, 6, 10, 1, 2]"] ;
273 -> 274 ;
275 [label="X[236] <= 239.0\ngini = 0.812\nsamples = 31\nvalue = [0, 8, 3, 1, 1, 1, 6, 8, 1, 2]"] ;
274 -> 275 ;
276 [label="X[180] <= 205.5\ngini = 0.768\nsamples = 25\nvalue = [0, 8, 3, 1, 1, 1, 0, 8, 1, 2]"] ;
275 -> 276 ;
277 [label="X[494] <= 64.5\ngini = 0.556\nsamples = 13\nvalue = [0, 8, 3, 1, 0, 0, 0, 0, 0, 1]"] ;
276 -> 277 ;
278 [label="X[321] <= 1.0\ngini = 0.198\nsamples = 9\nvalue = [0, 8, 0, 0, 0, 0, 0, 0, 0, 1]"] ;
277 -> 278 ;
279 [label="gini = 0.0\nsamples = 8\nvalue = [0, 8, 0, 0, 0, 0, 0, 0, 0, 0]"] ;
278 -> 279 ;
280 [label="gini = 0.0\nsamples = 1\nvalue = [0, 0, 0, 0, 0, 0, 0, 0, 0, 1]"] ;
278 -> 280 ;
281 [label="X[598] <= 245.0\ngini = 0.375\nsamples = 4\nvalue = [0, 0, 3, 1, 0, 0, 0, 0, 0, 0]"] ;
277 -> 281 ;
282 [label="gini = 0.0\nsamples = 3\nvalue = [0, 0, 3, 0, 0, 0, 0, 0, 0, 0]"] ;
281 -> 282 ;
283 [label="gini = 0.0\nsamples = 1\nvalue = [0, 0, 0, 1, 0, 0, 0, 0, 0, 0]"] ;
281 -> 283 ;
284 [label="X[347] <= 163.5\ngini = 0.528\nsamples = 12\nvalue = [0, 0, 0, 0, 1, 1, 0, 8, 1, 1]"] ;
276 -> 284 ;
285 [label="gini = 0.0\nsamples = 8\nvalue = [0, 0, 0, 0, 0, 0, 0, 8, 0, 0]"] ;
284 -> 285 ;
286 [label="X[184] <= 79.5\ngini = 0.75\nsamples = 4\nvalue = [0, 0, 0, 0, 1, 1, 0, 0, 1, 1]"] ;
284 -> 286 ;
287 [label="X[296] <= 218.5\ngini = 0.5\nsamples = 2\nvalue = [0, 0, 0, 0, 1, 0, 0, 0, 0, 1]"] ;
286 -> 287 ;
288 [label="gini = 0.0\nsamples = 1\nvalue = [0, 0, 0, 0, 0, 0, 0, 0, 0, 1]"] ;
287 -> 288 ;
289 [label="gini = 0.0\nsamples = 1\nvalue = [0, 0, 0, 0, 1, 0, 0, 0, 0, 0]"] ;
287 -> 289 ;
290 [label="X[631] <= 72.5\ngini = 0.5\nsamples = 2\nvalue = [0, 0, 0, 0, 0, 1, 0, 0, 1, 0]"] ;
286 -> 290 ;
291 [label="gini = 0.0\nsamples = 1\nvalue = [0, 0, 0, 0, 0, 1, 0, 0, 0, 0]"] ;
290 -> 291 ;
292 [label="gini = 0.0\nsamples = 1\nvalue = [0, 0, 0, 0, 0, 0, 0, 0, 1, 0]"] ;
290 -> 292 ;
293 [label="gini = 0.0\nsamples = 6\nvalue = [0, 0, 0, 0, 0, 0, 6, 0, 0, 0]"] ;
275 -> 293 ;
294 [label="X[524] <= 184.5\ngini = 0.32\nsamples = 16\nvalue = [0, 0, 13, 0, 0, 1, 0, 2, 0, 0]"] ;
274 -> 294 ;
295 [label="X[157] <= 22.0\ngini = 0.133\nsamples = 14\nvalue = [0, 0, 13, 0, 0, 0, 0, 1, 0, 0]"] ;
294 -> 295 ;
296 [label="gini = 0.0\nsamples = 13\nvalue = [0, 0, 13, 0, 0, 0, 0, 0, 0, 0]"] ;
295 -> 296 ;
297 [label="gini = 0.0\nsamples = 1\nvalue = [0, 0, 0, 0, 0, 0, 0, 1, 0, 0]"] ;
295 -> 297 ;
298 [label="X[412] <= 14.0\ngini = 0.5\nsamples = 2\nvalue = [0, 0, 0, 0, 0, 1, 0, 1, 0, 0]"] ;
294 -> 298 ;
299 [label="gini = 0.0\nsamples = 1\nvalue = [0, 0, 0, 0, 0, 0, 0, 1, 0, 0]"] ;
298 -> 299 ;
300 [label="gini = 0.0\nsamples = 1\nvalue = [0, 0, 0, 0, 0, 1, 0, 0, 0, 0]"] ;
298 -> 300 ;
301 [label="X[241] <= 3.5\ngini = 0.663\nsamples = 81\nvalue = [2, 5, 3, 39, 0, 25, 0, 5, 0, 2]"] ;
273 -> 301 ;
302 [label="X[238] <= 107.0\ngini = 0.588\nsamples = 35\nvalue = [1, 1, 1, 10, 0, 20, 0, 1, 0, 1]"] ;
301 -> 302 ;
303 [label="X[301] <= 51.5\ngini = 0.37\nsamples = 26\nvalue = [1, 0, 0, 5, 0, 20, 0, 0, 0, 0]"] ;
302 -> 303 ;
304 [label="X[150] <= 244.5\ngini = 0.165\nsamples = 22\nvalue = [0, 0, 0, 2, 0, 20, 0, 0, 0, 0]"] ;
303 -> 304 ;
305 [label="gini = 0.0\nsamples = 20\nvalue = [0, 0, 0, 0, 0, 20, 0, 0, 0, 0]"] ;
304 -> 305 ;
306 [label="gini = 0.0\nsamples = 2\nvalue = [0, 0, 0, 2, 0, 0, 0, 0, 0, 0]"] ;
304 -> 306 ;
307 [label="X[301] <= 120.0\ngini = 0.375\nsamples = 4\nvalue = [1, 0, 0, 3, 0, 0, 0, 0, 0, 0]"] ;
303 -> 307 ;
308 [label="gini = 0.0\nsamples = 1\nvalue = [1, 0, 0, 0, 0, 0, 0, 0, 0, 0]"] ;
307 -> 308 ;
309 [label="gini = 0.0\nsamples = 3\nvalue = [0, 0, 0, 3, 0, 0, 0, 0, 0, 0]"] ;
307 -> 309 ;
310 [label="X[653] <= 1.5\ngini = 0.642\nsamples = 9\nvalue = [0, 1, 1, 5, 0, 0, 0, 1, 0, 1]"] ;
302 -> 310 ;
311 [label="X[546] <= 110.0\ngini = 0.75\nsamples = 4\nvalue = [0, 1, 1, 0, 0, 0, 0, 1, 0, 1]"] ;
310 -> 311 ;
312 [label="gini = 0.0\nsamples = 1\nvalue = [0, 0, 0, 0, 0, 0, 0, 0, 0, 1]"] ;
311 -> 312 ;
313 [label="X[517] <= 81.5\ngini = 0.667\nsamples = 3\nvalue = [0, 1, 1, 0, 0, 0, 0, 1, 0, 0]"] ;
311 -> 313 ;
314 [label="X[429] <= 31.5\ngini = 0.5\nsamples = 2\nvalue = [0, 1, 0, 0, 0, 0, 0, 1, 0, 0]"] ;
313 -> 314 ;
315 [label="gini = 0.0\nsamples = 1\nvalue = [0, 1, 0, 0, 0, 0, 0, 0, 0, 0]"] ;
314 -> 315 ;
316 [label="gini = 0.0\nsamples = 1\nvalue = [0, 0, 0, 0, 0, 0, 0, 1, 0, 0]"] ;
314 -> 316 ;
317 [label="gini = 0.0\nsamples = 1\nvalue = [0, 0, 1, 0, 0, 0, 0, 0, 0, 0]"] ;
313 -> 317 ;
318 [label="gini = 0.0\nsamples = 5\nvalue = [0, 0, 0, 5, 0, 0, 0, 0, 0, 0]"] ;
310 -> 318 ;
319 [label="X[519] <= 144.0\ngini = 0.573\nsamples = 46\nvalue = [1, 4, 2, 29, 0, 5, 0, 4, 0, 1]"] ;
301 -> 319 ;
320 [label="X[260] <= 140.0\ngini = 0.337\nsamples = 31\nvalue = [1, 0, 1, 25, 0, 3, 0, 0, 0, 1]"] ;
319 -> 320 ;
321 [label="X[514] <= 148.0\ngini = 0.145\nsamples = 26\nvalue = [0, 0, 0, 24, 0, 1, 0, 0, 0, 1]"] ;
320 -> 321 ;
322 [label="X[383] <= 254.0\ngini = 0.077\nsamples = 25\nvalue = [0, 0, 0, 24, 0, 1, 0, 0, 0, 0]"] ;
321 -> 322 ;
323 [label="gini = 0.0\nsamples = 24\nvalue = [0, 0, 0, 24, 0, 0, 0, 0, 0, 0]"] ;
322 -> 323 ;
324 [label="gini = 0.0\nsamples = 1\nvalue = [0, 0, 0, 0, 0, 1, 0, 0, 0, 0]"] ;
322 -> 324 ;
325 [label="gini = 0.0\nsamples = 1\nvalue = [0, 0, 0, 0, 0, 0, 0, 0, 0, 1]"] ;
321 -> 325 ;
326 [label="X[298] <= 68.0\ngini = 0.72\nsamples = 5\nvalue = [1, 0, 1, 1, 0, 2, 0, 0, 0, 0]"] ;
320 -> 326 ;
327 [label="gini = 0.0\nsamples = 2\nvalue = [0, 0, 0, 0, 0, 2, 0, 0, 0, 0]"] ;
326 -> 327 ;
328 [label="X[320] <= 4.5\ngini = 0.667\nsamples = 3\nvalue = [1, 0, 1, 1, 0, 0, 0, 0, 0, 0]"] ;
326 -> 328 ;
329 [label="X[658] <= 253.5\ngini = 0.5\nsamples = 2\nvalue = [0, 0, 1, 1, 0, 0, 0, 0, 0, 0]"] ;
328 -> 329 ;
330 [label="gini = 0.0\nsamples = 1\nvalue = [0, 0, 0, 1, 0, 0, 0, 0, 0, 0]"] ;
329 -> 330 ;
331 [label="gini = 0.0\nsamples = 1\nvalue = [0, 0, 1, 0, 0, 0, 0, 0, 0, 0]"] ;
329 -> 331 ;
332 [label="gini = 0.0\nsamples = 1\nvalue = [1, 0, 0, 0, 0, 0, 0, 0, 0, 0]"] ;
328 -> 332 ;
333 [label="X[545] <= 46.5\ngini = 0.764\nsamples = 15\nvalue = [0, 4, 1, 4, 0, 2, 0, 4, 0, 0]"] ;
319 -> 333 ;
334 [label="X[128] <= 58.0\ngini = 0.694\nsamples = 11\nvalue = [0, 4, 1, 4, 0, 2, 0, 0, 0, 0]"] ;
333 -> 334 ;
335 [label="X[265] <= 79.5\ngini = 0.571\nsamples = 7\nvalue = [0, 0, 1, 4, 0, 2, 0, 0, 0, 0]"] ;
334 -> 335 ;
336 [label="gini = 0.0\nsamples = 4\nvalue = [0, 0, 0, 4, 0, 0, 0, 0, 0, 0]"] ;
335 -> 336 ;
337 [label="X[432] <= 102.5\ngini = 0.444\nsamples = 3\nvalue = [0, 0, 1, 0, 0, 2, 0, 0, 0, 0]"] ;
335 -> 337 ;
338 [label="gini = 0.0\nsamples = 1\nvalue = [0, 0, 1, 0, 0, 0, 0, 0, 0, 0]"] ;
337 -> 338 ;
339 [label="gini = 0.0\nsamples = 2\nvalue = [0, 0, 0, 0, 0, 2, 0, 0, 0, 0]"] ;
337 -> 339 ;
340 [label="gini = 0.0\nsamples = 4\nvalue = [0, 4, 0, 0, 0, 0, 0, 0, 0, 0]"] ;
334 -> 340 ;
341 [label="gini = 0.0\nsamples = 4\nvalue = [0, 0, 0, 0, 0, 0, 0, 4, 0, 0]"] ;
333 -> 341 ;
342 [label="X[594] <= 27.5\ngini = 0.154\nsamples = 49\nvalue = [45, 0, 1, 0, 0, 0, 2, 0, 0, 1]"] ;
272 -> 342 ;
343 [label="X[210] <= 19.0\ngini = 0.625\nsamples = 4\nvalue = [0, 0, 1, 0, 0, 0, 2, 0, 0, 1]"] ;
342 -> 343 ;
344 [label="gini = 0.0\nsamples = 2\nvalue = [0, 0, 0, 0, 0, 0, 2, 0, 0, 0]"] ;
343 -> 344 ;
345 [label="X[539] <= 42.5\ngini = 0.5\nsamples = 2\nvalue = [0, 0, 1, 0, 0, 0, 0, 0, 0, 1]"] ;
343 -> 345 ;
346 [label="gini = 0.0\nsamples = 1\nvalue = [0, 0, 1, 0, 0, 0, 0, 0, 0, 0]"] ;
345 -> 346 ;
347 [label="gini = 0.0\nsamples = 1\nvalue = [0, 0, 0, 0, 0, 0, 0, 0, 0, 1]"] ;
345 -> 347 ;
348 [label="gini = 0.0\nsamples = 45\nvalue = [45, 0, 0, 0, 0, 0, 0, 0, 0, 0]"] ;
342 -> 348 ;
349 [label="X[347] <= 7.0\ngini = 0.393\nsamples = 312\nvalue = [5, 7, 241, 12, 0, 15, 4, 23, 5, 0]"] ;
271 -> 349 ;
350 [label="X[682] <= 159.0\ngini = 0.234\nsamples = 264\nvalue = [3, 3, 230, 6, 0, 1, 1, 20, 0, 0]"] ;
349 -> 350 ;
351 [label="X[592] <= 14.5\ngini = 0.17\nsamples = 233\nvalue = [3, 3, 212, 5, 0, 1, 1, 8, 0, 0]"] ;
350 -> 351 ;
352 [label="X[596] <= 211.0\ngini = 0.141\nsamples = 229\nvalue = [0, 3, 212, 4, 0, 1, 1, 8, 0, 0]"] ;
351 -> 352 ;
353 [label="X[679] <= 253.5\ngini = 0.119\nsamples = 225\nvalue = [0, 0, 211, 4, 0, 1, 1, 8, 0, 0]"] ;
352 -> 353 ;
354 [label="X[321] <= 53.5\ngini = 0.104\nsamples = 223\nvalue = [0, 0, 211, 4, 0, 1, 1, 6, 0, 0]"] ;
353 -> 354 ;
355 [label="X[349] <= 29.5\ngini = 0.079\nsamples = 220\nvalue = [0, 0, 211, 3, 0, 0, 0, 6, 0, 0]"] ;
354 -> 355 ;
356 [label="X[316] <= 251.5\ngini = 0.071\nsamples = 219\nvalue = [0, 0, 211, 2, 0, 0, 0, 6, 0, 0]"] ;
355 -> 356 ;
357 [label="X[677] <= 194.5\ngini = 0.063\nsamples = 218\nvalue = [0, 0, 211, 2, 0, 0, 0, 5, 0, 0]"] ;
356 -> 357 ;
358 [label="X[683] <= 163.0\ngini = 0.054\nsamples = 217\nvalue = [0, 0, 211, 2, 0, 0, 0, 4, 0, 0]"] ;
357 -> 358 ;
359 [label="X[294] <= 237.0\ngini = 0.029\nsamples = 204\nvalue = [0, 0, 201, 2, 0, 0, 0, 1, 0, 0]"] ;
358 -> 359 ;
360 [label="X[153] <= 7.5\ngini = 0.02\nsamples = 202\nvalue = [0, 0, 200, 1, 0, 0, 0, 1, 0, 0]"] ;
359 -> 360 ;
361 [label="X[490] <= 127.0\ngini = 0.444\nsamples = 3\nvalue = [0, 0, 2, 1, 0, 0, 0, 0, 0, 0]"] ;
360 -> 361 ;
362 [label="gini = 0.0\nsamples = 1\nvalue = [0, 0, 0, 1, 0, 0, 0, 0, 0, 0]"] ;
361 -> 362 ;
363 [label="gini = 0.0\nsamples = 2\nvalue = [0, 0, 2, 0, 0, 0, 0, 0, 0, 0]"] ;
361 -> 363 ;
364 [label="X[682] <= 110.0\ngini = 0.01\nsamples = 199\nvalue = [0, 0, 198, 0, 0, 0, 0, 1, 0, 0]"] ;
360 -> 364 ;
365 [label="gini = 0.0\nsamples = 193\nvalue = [0, 0, 193, 0, 0, 0, 0, 0, 0, 0]"] ;
364 -> 365 ;
366 [label="X[382] <= 117.0\ngini = 0.278\nsamples = 6\nvalue = [0, 0, 5, 0, 0, 0, 0, 1, 0, 0]"] ;
364 -> 366 ;
367 [label="gini = 0.0\nsamples = 1\nvalue = [0, 0, 0, 0, 0, 0, 0, 1, 0, 0]"] ;
366 -> 367 ;
368 [label="gini = 0.0\nsamples = 5\nvalue = [0, 0, 5, 0, 0, 0, 0, 0, 0, 0]"] ;
366 -> 368 ;
369 [label="X[208] <= 116.5\ngini = 0.5\nsamples = 2\nvalue = [0, 0, 1, 1, 0, 0, 0, 0, 0, 0]"] ;
359 -> 369 ;
370 [label="gini = 0.0\nsamples = 1\nvalue = [0, 0, 0, 1, 0, 0, 0, 0, 0, 0]"] ;
369 -> 370 ;
371 [label="gini = 0.0\nsamples = 1\nvalue = [0, 0, 1, 0, 0, 0, 0, 0, 0, 0]"] ;
369 -> 371 ;
372 [label="X[239] <= 163.0\ngini = 0.355\nsamples = 13\nvalue = [0, 0, 10, 0, 0, 0, 0, 3, 0, 0]"] ;
358 -> 372 ;
373 [label="gini = 0.0\nsamples = 10\nvalue = [0, 0, 10, 0, 0, 0, 0, 0, 0, 0]"] ;
372 -> 373 ;
374 [label="gini = 0.0\nsamples = 3\nvalue = [0, 0, 0, 0, 0, 0, 0, 3, 0, 0]"] ;
372 -> 374 ;
375 [label="gini = 0.0\nsamples = 1\nvalue = [0, 0, 0, 0, 0, 0, 0, 1, 0, 0]"] ;
357 -> 375 ;
376 [label="gini = 0.0\nsamples = 1\nvalue = [0, 0, 0, 0, 0, 0, 0, 1, 0, 0]"] ;
356 -> 376 ;
377 [label="gini = 0.0\nsamples = 1\nvalue = [0, 0, 0, 1, 0, 0, 0, 0, 0, 0]"] ;
355 -> 377 ;
378 [label="X[204] <= 46.5\ngini = 0.667\nsamples = 3\nvalue = [0, 0, 0, 1, 0, 1, 1, 0, 0, 0]"] ;
354 -> 378 ;
379 [label="X[127] <= 24.5\ngini = 0.5\nsamples = 2\nvalue = [0, 0, 0, 1, 0, 0, 1, 0, 0, 0]"] ;
378 -> 379 ;
380 [label="gini = 0.0\nsamples = 1\nvalue = [0, 0, 0, 1, 0, 0, 0, 0, 0, 0]"] ;
379 -> 380 ;
381 [label="gini = 0.0\nsamples = 1\nvalue = [0, 0, 0, 0, 0, 0, 1, 0, 0, 0]"] ;
379 -> 381 ;
382 [label="gini = 0.0\nsamples = 1\nvalue = [0, 0, 0, 0, 0, 1, 0, 0, 0, 0]"] ;
378 -> 382 ;
383 [label="gini = 0.0\nsamples = 2\nvalue = [0, 0, 0, 0, 0, 0, 0, 2, 0, 0]"] ;
353 -> 383 ;
384 [label="X[657] <= 72.0\ngini = 0.375\nsamples = 4\nvalue = [0, 3, 1, 0, 0, 0, 0, 0, 0, 0]"] ;
352 -> 384 ;
385 [label="gini = 0.0\nsamples = 3\nvalue = [0, 3, 0, 0, 0, 0, 0, 0, 0, 0]"] ;
384 -> 385 ;
386 [label="gini = 0.0\nsamples = 1\nvalue = [0, 0, 1, 0, 0, 0, 0, 0, 0, 0]"] ;
384 -> 386 ;
387 [label="X[237] <= 40.0\ngini = 0.375\nsamples = 4\nvalue = [3, 0, 0, 1, 0, 0, 0, 0, 0, 0]"] ;
351 -> 387 ;
388 [label="gini = 0.0\nsamples = 1\nvalue = [0, 0, 0, 1, 0, 0, 0, 0, 0, 0]"] ;
387 -> 388 ;
389 [label="gini = 0.0\nsamples = 3\nvalue = [3, 0, 0, 0, 0, 0, 0, 0, 0, 0]"] ;
387 -> 389 ;
390 [label="X[577] <= 52.0\ngini = 0.512\nsamples = 31\nvalue = [0, 0, 18, 1, 0, 0, 0, 12, 0, 0]"] ;
350 -> 390 ;
391 [label="X[570] <= 171.5\ngini = 0.375\nsamples = 16\nvalue = [0, 0, 4, 0, 0, 0, 0, 12, 0, 0]"] ;
390 -> 391 ;
392 [label="gini = 0.0\nsamples = 12\nvalue = [0, 0, 0, 0, 0, 0, 0, 12, 0, 0]"] ;
391 -> 392 ;
393 [label="gini = 0.0\nsamples = 4\nvalue = [0, 0, 4, 0, 0, 0, 0, 0, 0, 0]"] ;
391 -> 393 ;
394 [label="X[653] <= 125.5\ngini = 0.124\nsamples = 15\nvalue = [0, 0, 14, 1, 0, 0, 0, 0, 0, 0]"] ;
390 -> 394 ;
395 [label="gini = 0.0\nsamples = 1\nvalue = [0, 0, 0, 1, 0, 0, 0, 0, 0, 0]"] ;
394 -> 395 ;
396 [label="gini = 0.0\nsamples = 14\nvalue = [0, 0, 14, 0, 0, 0, 0, 0, 0, 0]"] ;
394 -> 396 ;
397 [label="X[237] <= 1.5\ngini = 0.819\nsamples = 48\nvalue = [2, 4, 11, 6, 0, 14, 3, 3, 5, 0]"] ;
349 -> 397 ;
398 [label="X[239] <= 35.0\ngini = 0.54\nsamples = 20\nvalue = [1, 0, 0, 3, 0, 13, 0, 1, 2, 0]"] ;
397 -> 398 ;
399 [label="X[427] <= 126.5\ngini = 0.133\nsamples = 14\nvalue = [1, 0, 0, 0, 0, 13, 0, 0, 0, 0]"] ;
398 -> 399 ;
400 [label="gini = 0.0\nsamples = 13\nvalue = [0, 0, 0, 0, 0, 13, 0, 0, 0, 0]"] ;
399 -> 400 ;
401 [label="gini = 0.0\nsamples = 1\nvalue = [1, 0, 0, 0, 0, 0, 0, 0, 0, 0]"] ;
399 -> 401 ;
402 [label="X[184] <= 7.5\ngini = 0.611\nsamples = 6\nvalue = [0, 0, 0, 3, 0, 0, 0, 1, 2, 0]"] ;
398 -> 402 ;
403 [label="X[208] <= 234.5\ngini = 0.444\nsamples = 3\nvalue = [0, 0, 0, 0, 0, 0, 0, 1, 2, 0]"] ;
402 -> 403 ;
404 [label="gini = 0.0\nsamples = 2\nvalue = [0, 0, 0, 0, 0, 0, 0, 0, 2, 0]"] ;
403 -> 404 ;
405 [label="gini = 0.0\nsamples = 1\nvalue = [0, 0, 0, 0, 0, 0, 0, 1, 0, 0]"] ;
403 -> 405 ;
406 [label="gini = 0.0\nsamples = 3\nvalue = [0, 0, 0, 3, 0, 0, 0, 0, 0, 0]"] ;
402 -> 406 ;
407 [label="X[235] <= 189.5\ngini = 0.783\nsamples = 28\nvalue = [1, 4, 11, 3, 0, 1, 3, 2, 3, 0]"] ;
397 -> 407 ;
408 [label="X[346] <= 1.0\ngini = 0.837\nsamples = 14\nvalue = [1, 3, 0, 2, 0, 1, 3, 2, 2, 0]"] ;
407 -> 408 ;
409 [label="gini = 0.0\nsamples = 3\nvalue = [0, 0, 0, 0, 0, 0, 3, 0, 0, 0]"] ;
408 -> 409 ;
410 [label="X[99] <= 1.0\ngini = 0.81\nsamples = 11\nvalue = [1, 3, 0, 2, 0, 1, 0, 2, 2, 0]"] ;
408 -> 410 ;
411 [label="X[120] <= 126.5\ngini = 0.781\nsamples = 8\nvalue = [1, 0, 0, 2, 0, 1, 0, 2, 2, 0]"] ;
410 -> 411 ;
412 [label="X[267] <= 55.0\ngini = 0.722\nsamples = 6\nvalue = [1, 0, 0, 0, 0, 1, 0, 2, 2, 0]"] ;
411 -> 412 ;
413 [label="gini = 0.0\nsamples = 2\nvalue = [0, 0, 0, 0, 0, 0, 0, 2, 0, 0]"] ;
412 -> 413 ;
414 [label="X[497] <= 51.0\ngini = 0.625\nsamples = 4\nvalue = [1, 0, 0, 0, 0, 1, 0, 0, 2, 0]"] ;
412 -> 414 ;
415 [label="gini = 0.0\nsamples = 2\nvalue = [0, 0, 0, 0, 0, 0, 0, 0, 2, 0]"] ;
414 -> 415 ;
416 [label="X[571] <= 52.5\ngini = 0.5\nsamples = 2\nvalue = [1, 0, 0, 0, 0, 1, 0, 0, 0, 0]"] ;
414 -> 416 ;
417 [label="gini = 0.0\nsamples = 1\nvalue = [0, 0, 0, 0, 0, 1, 0, 0, 0, 0]"] ;
416 -> 417 ;
418 [label="gini = 0.0\nsamples = 1\nvalue = [1, 0, 0, 0, 0, 0, 0, 0, 0, 0]"] ;
416 -> 418 ;
419 [label="gini = 0.0\nsamples = 2\nvalue = [0, 0, 0, 2, 0, 0, 0, 0, 0, 0]"] ;
411 -> 419 ;
420 [label="gini = 0.0\nsamples = 3\nvalue = [0, 3, 0, 0, 0, 0, 0, 0, 0, 0]"] ;
410 -> 420 ;
421 [label="X[319] <= 129.0\ngini = 0.367\nsamples = 14\nvalue = [0, 1, 11, 1, 0, 0, 0, 0, 1, 0]"] ;
407 -> 421 ;
422 [label="X[687] <= 38.5\ngini = 0.667\nsamples = 3\nvalue = [0, 1, 0, 1, 0, 0, 0, 0, 1, 0]"] ;
421 -> 422 ;
423 [label="X[205] <= 49.0\ngini = 0.5\nsamples = 2\nvalue = [0, 1, 0, 1, 0, 0, 0, 0, 0, 0]"] ;
422 -> 423 ;
424 [label="gini = 0.0\nsamples = 1\nvalue = [0, 1, 0, 0, 0, 0, 0, 0, 0, 0]"] ;
423 -> 424 ;
425 [label="gini = 0.0\nsamples = 1\nvalue = [0, 0, 0, 1, 0, 0, 0, 0, 0, 0]"] ;
423 -> 425 ;
426 [label="gini = 0.0\nsamples = 1\nvalue = [0, 0, 0, 0, 0, 0, 0, 0, 1, 0]"] ;
422 -> 426 ;
427 [label="gini = 0.0\nsamples = 11\nvalue = [0, 0, 11, 0, 0, 0, 0, 0, 0, 0]"] ;
421 -> 427 ;
428 [label="X[211] <= 53.5\ngini = 0.787\nsamples = 1282\nvalue = [116, 0, 83, 6, 322, 28, 147, 148, 5, 427]"] ;
4 -> 428 ;
429 [label="X[487] <= 135.5\ngini = 0.722\nsamples = 622\nvalue = [32, 0, 46, 0, 280, 15, 139, 68, 1, 41]"] ;
428 -> 429 ;
430 [label="X[514] <= 0.5\ngini = 0.731\nsamples = 268\nvalue = [27, 0, 12, 0, 28, 9, 120, 53, 0, 19]"] ;
429 -> 430 ;
431 [label="X[487] <= 6.5\ngini = 0.461\nsamples = 72\nvalue = [3, 0, 3, 0, 3, 4, 0, 52, 0, 7]"] ;
430 -> 431 ;
432 [label="X[156] <= 46.5\ngini = 0.216\nsamples = 59\nvalue = [3, 0, 0, 0, 0, 4, 0, 52, 0, 0]"] ;
431 -> 432 ;
433 [label="X[570] <= 125.0\ngini = 0.037\nsamples = 53\nvalue = [0, 0, 0, 0, 0, 1, 0, 52, 0, 0]"] ;
432 -> 433 ;
434 [label="gini = 0.0\nsamples = 52\nvalue = [0, 0, 0, 0, 0, 0, 0, 52, 0, 0]"] ;
433 -> 434 ;
435 [label="gini = 0.0\nsamples = 1\nvalue = [0, 0, 0, 0, 0, 1, 0, 0, 0, 0]"] ;
433 -> 435 ;
436 [label="X[455] <= 113.0\ngini = 0.5\nsamples = 6\nvalue = [3, 0, 0, 0, 0, 3, 0, 0, 0, 0]"] ;
432 -> 436 ;
437 [label="gini = 0.0\nsamples = 3\nvalue = [0, 0, 0, 0, 0, 3, 0, 0, 0, 0]"] ;
436 -> 437 ;
438 [label="gini = 0.0\nsamples = 3\nvalue = [3, 0, 0, 0, 0, 0, 0, 0, 0, 0]"] ;
436 -> 438 ;
439 [label="X[316] <= 51.5\ngini = 0.604\nsamples = 13\nvalue = [0, 0, 3, 0, 3, 0, 0, 0, 0, 7]"] ;
431 -> 439 ;
440 [label="X[628] <= 18.0\ngini = 0.5\nsamples = 6\nvalue = [0, 0, 3, 0, 3, 0, 0, 0, 0, 0]"] ;
439 -> 440 ;
441 [label="gini = 0.0\nsamples = 3\nvalue = [0, 0, 0, 0, 3, 0, 0, 0, 0, 0]"] ;
440 -> 441 ;
442 [label="gini = 0.0\nsamples = 3\nvalue = [0, 0, 3, 0, 0, 0, 0, 0, 0, 0]"] ;
440 -> 442 ;
443 [label="gini = 0.0\nsamples = 7\nvalue = [0, 0, 0, 0, 0, 0, 0, 0, 0, 7]"] ;
439 -> 443 ;
444 [label="X[463] <= 14.5\ngini = 0.587\nsamples = 196\nvalue = [24, 0, 9, 0, 25, 5, 120, 1, 0, 12]"] ;
430 -> 444 ;
445 [label="X[466] <= 0.5\ngini = 0.753\nsamples = 62\nvalue = [24, 0, 2, 0, 12, 4, 12, 0, 0, 8]"] ;
444 -> 445 ;
446 [label="X[571] <= 246.0\ngini = 0.344\nsamples = 30\nvalue = [24, 0, 0, 0, 1, 2, 3, 0, 0, 0]"] ;
445 -> 446 ;
447 [label="X[517] <= 249.0\ngini = 0.08\nsamples = 24\nvalue = [23, 0, 0, 0, 1, 0, 0, 0, 0, 0]"] ;
446 -> 447 ;
448 [label="gini = 0.0\nsamples = 23\nvalue = [23, 0, 0, 0, 0, 0, 0, 0, 0, 0]"] ;
447 -> 448 ;
449 [label="gini = 0.0\nsamples = 1\nvalue = [0, 0, 0, 0, 1, 0, 0, 0, 0, 0]"] ;
447 -> 449 ;
450 [label="X[599] <= 132.5\ngini = 0.611\nsamples = 6\nvalue = [1, 0, 0, 0, 0, 2, 3, 0, 0, 0]"] ;
446 -> 450 ;
451 [label="gini = 0.0\nsamples = 3\nvalue = [0, 0, 0, 0, 0, 0, 3, 0, 0, 0]"] ;
450 -> 451 ;
452 [label="X[511] <= 16.5\ngini = 0.444\nsamples = 3\nvalue = [1, 0, 0, 0, 0, 2, 0, 0, 0, 0]"] ;
450 -> 452 ;
453 [label="gini = 0.0\nsamples = 2\nvalue = [0, 0, 0, 0, 0, 2, 0, 0, 0, 0]"] ;
452 -> 453 ;
454 [label="gini = 0.0\nsamples = 1\nvalue = [1, 0, 0, 0, 0, 0, 0, 0, 0, 0]"] ;
452 -> 454 ;
455 [label="X[400] <= 20.0\ngini = 0.732\nsamples = 32\nvalue = [0, 0, 2, 0, 11, 2, 9, 0, 0, 8]"] ;
445 -> 455 ;
456 [label="X[148] <= 4.5\ngini = 0.612\nsamples = 14\nvalue = [0, 0, 2, 0, 2, 2, 0, 0, 0, 8]"] ;
455 -> 456 ;
457 [label="X[220] <= 22.0\ngini = 0.198\nsamples = 9\nvalue = [0, 0, 0, 0, 0, 1, 0, 0, 0, 8]"] ;
456 -> 457 ;
458 [label="gini = 0.0\nsamples = 8\nvalue = [0, 0, 0, 0, 0, 0, 0, 0, 0, 8]"] ;
457 -> 458 ;
459 [label="gini = 0.0\nsamples = 1\nvalue = [0, 0, 0, 0, 0, 1, 0, 0, 0, 0]"] ;
457 -> 459 ;
460 [label="X[523] <= 119.5\ngini = 0.64\nsamples = 5\nvalue = [0, 0, 2, 0, 2, 1, 0, 0, 0, 0]"] ;
456 -> 460 ;
461 [label="gini = 0.0\nsamples = 2\nvalue = [0, 0, 0, 0, 2, 0, 0, 0, 0, 0]"] ;
460 -> 461 ;
462 [label="X[120] <= 2.5\ngini = 0.444\nsamples = 3\nvalue = [0, 0, 2, 0, 0, 1, 0, 0, 0, 0]"] ;
460 -> 462 ;
463 [label="gini = 0.0\nsamples = 1\nvalue = [0, 0, 0, 0, 0, 1, 0, 0, 0, 0]"] ;
462 -> 463 ;
464 [label="gini = 0.0\nsamples = 2\nvalue = [0, 0, 2, 0, 0, 0, 0, 0, 0, 0]"] ;
462 -> 464 ;
465 [label="X[469] <= 24.0\ngini = 0.5\nsamples = 18\nvalue = [0, 0, 0, 0, 9, 0, 9, 0, 0, 0]"] ;
455 -> 465 ;
466 [label="X[203] <= 185.5\ngini = 0.18\nsamples = 10\nvalue = [0, 0, 0, 0, 9, 0, 1, 0, 0, 0]"] ;
465 -> 466 ;
467 [label="gini = 0.0\nsamples = 9\nvalue = [0, 0, 0, 0, 9, 0, 0, 0, 0, 0]"] ;
466 -> 467 ;
468 [label="gini = 0.0\nsamples = 1\nvalue = [0, 0, 0, 0, 0, 0, 1, 0, 0, 0]"] ;
466 -> 468 ;
469 [label="gini = 0.0\nsamples = 8\nvalue = [0, 0, 0, 0, 0, 0, 8, 0, 0, 0]"] ;
465 -> 469 ;
470 [label="X[242] <= 28.5\ngini = 0.337\nsamples = 134\nvalue = [0, 0, 7, 0, 13, 1, 108, 1, 0, 4]"] ;
444 -> 470 ;
471 [label="X[627] <= 80.0\ngini = 0.135\nsamples = 112\nvalue = [0, 0, 2, 0, 5, 0, 104, 0, 0, 1]"] ;
470 -> 471 ;
472 [label="X[239] <= 1.5\ngini = 0.073\nsamples = 107\nvalue = [0, 0, 1, 0, 2, 0, 103, 0, 0, 1]"] ;
471 -> 472 ;
473 [label="X[659] <= 23.5\ngini = 0.037\nsamples = 105\nvalue = [0, 0, 0, 0, 2, 0, 103, 0, 0, 0]"] ;
472 -> 473 ;
474 [label="X[265] <= 163.5\ngini = 0.019\nsamples = 104\nvalue = [0, 0, 0, 0, 1, 0, 103, 0, 0, 0]"] ;
473 -> 474 ;
475 [label="gini = 0.0\nsamples = 103\nvalue = [0, 0, 0, 0, 0, 0, 103, 0, 0, 0]"] ;
474 -> 475 ;
476 [label="gini = 0.0\nsamples = 1\nvalue = [0, 0, 0, 0, 1, 0, 0, 0, 0, 0]"] ;
474 -> 476 ;
477 [label="gini = 0.0\nsamples = 1\nvalue = [0, 0, 0, 0, 1, 0, 0, 0, 0, 0]"] ;
473 -> 477 ;
478 [label="X[400] <= 239.0\ngini = 0.5\nsamples = 2\nvalue = [0, 0, 1, 0, 0, 0, 0, 0, 0, 1]"] ;
472 -> 478 ;
479 [label="gini = 0.0\nsamples = 1\nvalue = [0, 0, 1, 0, 0, 0, 0, 0, 0, 0]"] ;
478 -> 479 ;
480 [label="gini = 0.0\nsamples = 1\nvalue = [0, 0, 0, 0, 0, 0, 0, 0, 0, 1]"] ;
478 -> 480 ;
481 [label="X[522] <= 14.0\ngini = 0.56\nsamples = 5\nvalue = [0, 0, 1, 0, 3, 0, 1, 0, 0, 0]"] ;
471 -> 481 ;
482 [label="X[457] <= 46.5\ngini = 0.5\nsamples = 2\nvalue = [0, 0, 1, 0, 0, 0, 1, 0, 0, 0]"] ;
481 -> 482 ;
483 [label="gini = 0.0\nsamples = 1\nvalue = [0, 0, 1, 0, 0, 0, 0, 0, 0, 0]"] ;
482 -> 483 ;
484 [label="gini = 0.0\nsamples = 1\nvalue = [0, 0, 0, 0, 0, 0, 1, 0, 0, 0]"] ;
482 -> 484 ;
485 [label="gini = 0.0\nsamples = 3\nvalue = [0, 0, 0, 0, 3, 0, 0, 0, 0, 0]"] ;
481 -> 485 ;
486 [label="X[400] <= 137.5\ngini = 0.76\nsamples = 22\nvalue = [0, 0, 5, 0, 8, 1, 4, 1, 0, 3]"] ;
470 -> 486 ;
487 [label="X[262] <= 93.5\ngini = 0.694\nsamples = 11\nvalue = [0, 0, 5, 0, 0, 1, 1, 1, 0, 3]"] ;
486 -> 487 ;
488 [label="X[628] <= 36.5\ngini = 0.562\nsamples = 8\nvalue = [0, 0, 5, 0, 0, 1, 1, 1, 0, 0]"] ;
487 -> 488 ;
489 [label="gini = 0.0\nsamples = 5\nvalue = [0, 0, 5, 0, 0, 0, 0, 0, 0, 0]"] ;
488 -> 489 ;
490 [label="X[547] <= 2.5\ngini = 0.667\nsamples = 3\nvalue = [0, 0, 0, 0, 0, 1, 1, 1, 0, 0]"] ;
488 -> 490 ;
491 [label="gini = 0.0\nsamples = 1\nvalue = [0, 0, 0, 0, 0, 1, 0, 0, 0, 0]"] ;
490 -> 491 ;
492 [label="X[316] <= 126.0\ngini = 0.5\nsamples = 2\nvalue = [0, 0, 0, 0, 0, 0, 1, 1, 0, 0]"] ;
490 -> 492 ;
493 [label="gini = 0.0\nsamples = 1\nvalue = [0, 0, 0, 0, 0, 0, 1, 0, 0, 0]"] ;
492 -> 493 ;
494 [label="gini = 0.0\nsamples = 1\nvalue = [0, 0, 0, 0, 0, 0, 0, 1, 0, 0]"] ;
492 -> 494 ;
495 [label="gini = 0.0\nsamples = 3\nvalue = [0, 0, 0, 0, 0, 0, 0, 0, 0, 3]"] ;
487 -> 495 ;
496 [label="X[351] <= 160.5\ngini = 0.397\nsamples = 11\nvalue = [0, 0, 0, 0, 8, 0, 3, 0, 0, 0]"] ;
486 -> 496 ;
497 [label="gini = 0.0\nsamples = 8\nvalue = [0, 0, 0, 0, 8, 0, 0, 0, 0, 0]"] ;
496 -> 497 ;
498 [label="gini = 0.0\nsamples = 3\nvalue = [0, 0, 0, 0, 0, 0, 3, 0, 0, 0]"] ;
496 -> 498 ;
499 [label="X[427] <= 1.5\ngini = 0.475\nsamples = 354\nvalue = [5, 0, 34, 0, 252, 6, 19, 15, 1, 22]"] ;
429 -> 499 ;
500 [label="X[127] <= 6.5\ngini = 0.666\nsamples = 62\nvalue = [0, 0, 30, 0, 13, 0, 1, 14, 0, 4]"] ;
499 -> 500 ;
501 [label="X[266] <= 22.0\ngini = 0.702\nsamples = 38\nvalue = [0, 0, 7, 0, 13, 0, 0, 14, 0, 4]"] ;
500 -> 501 ;
502 [label="X[183] <= 109.5\ngini = 0.444\nsamples = 18\nvalue = [0, 0, 1, 0, 13, 0, 0, 1, 0, 3]"] ;
501 -> 502 ;
503 [label="X[396] <= 161.5\ngini = 0.133\nsamples = 14\nvalue = [0, 0, 0, 0, 13, 0, 0, 0, 0, 1]"] ;
502 -> 503 ;
504 [label="gini = 0.0\nsamples = 13\nvalue = [0, 0, 0, 0, 13, 0, 0, 0, 0, 0]"] ;
503 -> 504 ;
505 [label="gini = 0.0\nsamples = 1\nvalue = [0, 0, 0, 0, 0, 0, 0, 0, 0, 1]"] ;
503 -> 505 ;
506 [label="X[602] <= 65.5\ngini = 0.625\nsamples = 4\nvalue = [0, 0, 1, 0, 0, 0, 0, 1, 0, 2]"] ;
502 -> 506 ;
507 [label="X[548] <= 249.5\ngini = 0.5\nsamples = 2\nvalue = [0, 0, 1, 0, 0, 0, 0, 1, 0, 0]"] ;
506 -> 507 ;
508 [label="gini = 0.0\nsamples = 1\nvalue = [0, 0, 1, 0, 0, 0, 0, 0, 0, 0]"] ;
507 -> 508 ;
509 [label="gini = 0.0\nsamples = 1\nvalue = [0, 0, 0, 0, 0, 0, 0, 1, 0, 0]"] ;
507 -> 509 ;
510 [label="gini = 0.0\nsamples = 2\nvalue = [0, 0, 0, 0, 0, 0, 0, 0, 0, 2]"] ;
506 -> 510 ;
511 [label="X[490] <= 218.5\ngini = 0.485\nsamples = 20\nvalue = [0, 0, 6, 0, 0, 0, 0, 13, 0, 1]"] ;
501 -> 511 ;
512 [label="X[512] <= 126.0\ngini = 0.449\nsamples = 7\nvalue = [0, 0, 5, 0, 0, 0, 0, 1, 0, 1]"] ;
511 -> 512 ;
513 [label="X[517] <= 150.5\ngini = 0.5\nsamples = 2\nvalue = [0, 0, 0, 0, 0, 0, 0, 1, 0, 1]"] ;
512 -> 513 ;
514 [label="gini = 0.0\nsamples = 1\nvalue = [0, 0, 0, 0, 0, 0, 0, 0, 0, 1]"] ;
513 -> 514 ;
515 [label="gini = 0.0\nsamples = 1\nvalue = [0, 0, 0, 0, 0, 0, 0, 1, 0, 0]"] ;
513 -> 515 ;
516 [label="gini = 0.0\nsamples = 5\nvalue = [0, 0, 5, 0, 0, 0, 0, 0, 0, 0]"] ;
512 -> 516 ;
517 [label="X[508] <= 30.0\ngini = 0.142\nsamples = 13\nvalue = [0, 0, 1, 0, 0, 0, 0, 12, 0, 0]"] ;
511 -> 517 ;
518 [label="gini = 0.0\nsamples = 12\nvalue = [0, 0, 0, 0, 0, 0, 0, 12, 0, 0]"] ;
517 -> 518 ;
519 [label="gini = 0.0\nsamples = 1\nvalue = [0, 0, 1, 0, 0, 0, 0, 0, 0, 0]"] ;
517 -> 519 ;
520 [label="X[387] <= 5.0\ngini = 0.08\nsamples = 24\nvalue = [0, 0, 23, 0, 0, 0, 1, 0, 0, 0]"] ;
500 -> 520 ;
521 [label="gini = 0.0\nsamples = 23\nvalue = [0, 0, 23, 0, 0, 0, 0, 0, 0, 0]"] ;
520 -> 521 ;
522 [label="gini = 0.0\nsamples = 1\nvalue = [0, 0, 0, 0, 0, 0, 1, 0, 0, 0]"] ;
520 -> 522 ;
523 [label="X[294] <= 9.5\ngini = 0.322\nsamples = 292\nvalue = [5, 0, 4, 0, 239, 6, 18, 1, 1, 18]"] ;
499 -> 523 ;
524 [label="X[96] <= 72.0\ngini = 0.209\nsamples = 264\nvalue = [1, 0, 2, 0, 234, 0, 18, 0, 1, 8]"] ;
523 -> 524 ;
525 [label="X[127] <= 198.0\ngini = 0.156\nsamples = 255\nvalue = [1, 0, 2, 0, 234, 0, 9, 0, 1, 8]"] ;
524 -> 525 ;
526 [label="X[182] <= 175.0\ngini = 0.101\nsamples = 247\nvalue = [1, 0, 0, 0, 234, 0, 3, 0, 1, 8]"] ;
525 -> 526 ;
527 [label="X[359] <= 251.0\ngini = 0.058\nsamples = 236\nvalue = [1, 0, 0, 0, 229, 0, 3, 0, 0, 3]"] ;
526 -> 527 ;
528 [label="X[267] <= 200.5\ngini = 0.034\nsamples = 232\nvalue = [1, 0, 0, 0, 228, 0, 0, 0, 0, 3]"] ;
527 -> 528 ;
529 [label="X[332] <= 136.5\ngini = 0.017\nsamples = 230\nvalue = [1, 0, 0, 0, 228, 0, 0, 0, 0, 1]"] ;
528 -> 529 ;
530 [label="X[484] <= 12.5\ngini = 0.009\nsamples = 229\nvalue = [0, 0, 0, 0, 228, 0, 0, 0, 0, 1]"] ;
529 -> 530 ;
531 [label="X[370] <= 15.0\ngini = 0.5\nsamples = 2\nvalue = [0, 0, 0, 0, 1, 0, 0, 0, 0, 1]"] ;
530 -> 531 ;
532 [label="gini = 0.0\nsamples = 1\nvalue = [0, 0, 0, 0, 1, 0, 0, 0, 0, 0]"] ;
531 -> 532 ;
533 [label="gini = 0.0\nsamples = 1\nvalue = [0, 0, 0, 0, 0, 0, 0, 0, 0, 1]"] ;
531 -> 533 ;
534 [label="gini = 0.0\nsamples = 227\nvalue = [0, 0, 0, 0, 227, 0, 0, 0, 0, 0]"] ;
530 -> 534 ;
535 [label="gini = 0.0\nsamples = 1\nvalue = [1, 0, 0, 0, 0, 0, 0, 0, 0, 0]"] ;
529 -> 535 ;
536 [label="gini = 0.0\nsamples = 2\nvalue = [0, 0, 0, 0, 0, 0, 0, 0, 0, 2]"] ;
528 -> 536 ;
537 [label="X[511] <= 169.0\ngini = 0.375\nsamples = 4\nvalue = [0, 0, 0, 0, 1, 0, 3, 0, 0, 0]"] ;
527 -> 537 ;
538 [label="gini = 0.0\nsamples = 3\nvalue = [0, 0, 0, 0, 0, 0, 3, 0, 0, 0]"] ;
537 -> 538 ;
539 [label="gini = 0.0\nsamples = 1\nvalue = [0, 0, 0, 0, 1, 0, 0, 0, 0, 0]"] ;
537 -> 539 ;
540 [label="X[496] <= 193.0\ngini = 0.579\nsamples = 11\nvalue = [0, 0, 0, 0, 5, 0, 0, 0, 1, 5]"] ;
526 -> 540 ;
541 [label="X[263] <= 245.5\ngini = 0.278\nsamples = 6\nvalue = [0, 0, 0, 0, 0, 0, 0, 0, 1, 5]"] ;
540 -> 541 ;
542 [label="gini = 0.0\nsamples = 5\nvalue = [0, 0, 0, 0, 0, 0, 0, 0, 0, 5]"] ;
541 -> 542 ;
543 [label="gini = 0.0\nsamples = 1\nvalue = [0, 0, 0, 0, 0, 0, 0, 0, 1, 0]"] ;
541 -> 543 ;
544 [label="gini = 0.0\nsamples = 5\nvalue = [0, 0, 0, 0, 5, 0, 0, 0, 0, 0]"] ;
540 -> 544 ;
545 [label="X[653] <= 126.0\ngini = 0.375\nsamples = 8\nvalue = [0, 0, 2, 0, 0, 0, 6, 0, 0, 0]"] ;
525 -> 545 ;
546 [label="gini = 0.0\nsamples = 6\nvalue = [0, 0, 0, 0, 0, 0, 6, 0, 0, 0]"] ;
545 -> 546 ;
547 [label="gini = 0.0\nsamples = 2\nvalue = [0, 0, 2, 0, 0, 0, 0, 0, 0, 0]"] ;
545 -> 547 ;
548 [label="gini = 0.0\nsamples = 9\nvalue = [0, 0, 0, 0, 0, 0, 9, 0, 0, 0]"] ;
524 -> 548 ;
549 [label="X[383] <= 100.0\ngini = 0.768\nsamples = 28\nvalue = [4, 0, 2, 0, 5, 6, 0, 1, 0, 10]"] ;
523 -> 549 ;
550 [label="X[248] <= 0.5\ngini = 0.785\nsamples = 20\nvalue = [4, 0, 2, 0, 5, 6, 0, 1, 0, 2]"] ;
549 -> 550 ;
551 [label="X[330] <= 1.5\ngini = 0.745\nsamples = 14\nvalue = [4, 0, 2, 0, 5, 0, 0, 1, 0, 2]"] ;
550 -> 551 ;
552 [label="X[548] <= 24.5\ngini = 0.66\nsamples = 10\nvalue = [0, 0, 2, 0, 5, 0, 0, 1, 0, 2]"] ;
551 -> 552 ;
553 [label="X[241] <= 80.5\ngini = 0.64\nsamples = 5\nvalue = [0, 0, 2, 0, 0, 0, 0, 1, 0, 2]"] ;
552 -> 553 ;
554 [label="X[513] <= 36.0\ngini = 0.444\nsamples = 3\nvalue = [0, 0, 2, 0, 0, 0, 0, 1, 0, 0]"] ;
553 -> 554 ;
555 [label="gini = 0.0\nsamples = 1\nvalue = [0, 0, 0, 0, 0, 0, 0, 1, 0, 0]"] ;
554 -> 555 ;
556 [label="gini = 0.0\nsamples = 2\nvalue = [0, 0, 2, 0, 0, 0, 0, 0, 0, 0]"] ;
554 -> 556 ;
557 [label="gini = 0.0\nsamples = 2\nvalue = [0, 0, 0, 0, 0, 0, 0, 0, 0, 2]"] ;
553 -> 557 ;
558 [label="gini = 0.0\nsamples = 5\nvalue = [0, 0, 0, 0, 5, 0, 0, 0, 0, 0]"] ;
552 -> 558 ;
559 [label="gini = 0.0\nsamples = 4\nvalue = [4, 0, 0, 0, 0, 0, 0, 0, 0, 0]"] ;
551 -> 559 ;
560 [label="gini = 0.0\nsamples = 6\nvalue = [0, 0, 0, 0, 0, 6, 0, 0, 0, 0]"] ;
550 -> 560 ;
561 [label="gini = 0.0\nsamples = 8\nvalue = [0, 0, 0, 0, 0, 0, 0, 0, 0, 8]"] ;
549 -> 561 ;
562 [label="X[437] <= 1.0\ngini = 0.619\nsamples = 660\nvalue = [84, 0, 37, 6, 42, 13, 8, 80, 4, 386]"] ;
428 -> 562 ;
563 [label="X[489] <= 9.0\ngini = 0.579\nsamples = 132\nvalue = [82, 0, 5, 4, 1, 11, 1, 9, 0, 19]"] ;
562 -> 563 ;
564 [label="X[428] <= 2.0\ngini = 0.302\nsamples = 94\nvalue = [78, 0, 1, 3, 0, 0, 0, 5, 0, 7]"] ;
563 -> 564 ;
565 [label="X[522] <= 51.5\ngini = 0.568\nsamples = 9\nvalue = [1, 0, 0, 3, 0, 0, 0, 0, 0, 5]"] ;
564 -> 565 ;
566 [label="X[519] <= 28.0\ngini = 0.375\nsamples = 4\nvalue = [1, 0, 0, 3, 0, 0, 0, 0, 0, 0]"] ;
565 -> 566 ;
567 [label="gini = 0.0\nsamples = 3\nvalue = [0, 0, 0, 3, 0, 0, 0, 0, 0, 0]"] ;
566 -> 567 ;
568 [label="gini = 0.0\nsamples = 1\nvalue = [1, 0, 0, 0, 0, 0, 0, 0, 0, 0]"] ;
566 -> 568 ;
569 [label="gini = 0.0\nsamples = 5\nvalue = [0, 0, 0, 0, 0, 0, 0, 0, 0, 5]"] ;
565 -> 569 ;
570 [label="X[715] <= 41.0\ngini = 0.175\nsamples = 85\nvalue = [77, 0, 1, 0, 0, 0, 0, 5, 0, 2]"] ;
564 -> 570 ;
571 [label="X[690] <= 203.0\ngini = 0.073\nsamples = 80\nvalue = [77, 0, 1, 0, 0, 0, 0, 1, 0, 1]"] ;
570 -> 571 ;
572 [label="X[529] <= 143.0\ngini = 0.025\nsamples = 78\nvalue = [77, 0, 1, 0, 0, 0, 0, 0, 0, 0]"] ;
571 -> 572 ;
573 [label="gini = 0.0\nsamples = 77\nvalue = [77, 0, 0, 0, 0, 0, 0, 0, 0, 0]"] ;
572 -> 573 ;
574 [label="gini = 0.0\nsamples = 1\nvalue = [0, 0, 1, 0, 0, 0, 0, 0, 0, 0]"] ;
572 -> 574 ;
575 [label="X[328] <= 93.5\ngini = 0.5\nsamples = 2\nvalue = [0, 0, 0, 0, 0, 0, 0, 1, 0, 1]"] ;
571 -> 575 ;
576 [label="gini = 0.0\nsamples = 1\nvalue = [0, 0, 0, 0, 0, 0, 0, 0, 0, 1]"] ;
575 -> 576 ;
577 [label="gini = 0.0\nsamples = 1\nvalue = [0, 0, 0, 0, 0, 0, 0, 1, 0, 0]"] ;
575 -> 577 ;
578 [label="X[519] <= 57.0\ngini = 0.32\nsamples = 5\nvalue = [0, 0, 0, 0, 0, 0, 0, 4, 0, 1]"] ;
570 -> 578 ;
579 [label="gini = 0.0\nsamples = 4\nvalue = [0, 0, 0, 0, 0, 0, 0, 4, 0, 0]"] ;
578 -> 579 ;
580 [label="gini = 0.0\nsamples = 1\nvalue = [0, 0, 0, 0, 0, 0, 0, 0, 0, 1]"] ;
578 -> 580 ;
581 [label="X[318] <= 21.5\ngini = 0.781\nsamples = 38\nvalue = [4, 0, 4, 1, 1, 11, 1, 4, 0, 12]"] ;
563 -> 581 ;
582 [label="X[574] <= 1.5\ngini = 0.707\nsamples = 25\nvalue = [2, 0, 4, 1, 0, 1, 1, 4, 0, 12]"] ;
581 -> 582 ;
583 [label="X[208] <= 90.5\ngini = 0.347\nsamples = 15\nvalue = [0, 0, 1, 1, 0, 1, 0, 0, 0, 12]"] ;
582 -> 583 ;
584 [label="X[435] <= 125.0\ngini = 0.667\nsamples = 3\nvalue = [0, 0, 1, 1, 0, 1, 0, 0, 0, 0]"] ;
583 -> 584 ;
585 [label="gini = 0.0\nsamples = 1\nvalue = [0, 0, 0, 0, 0, 1, 0, 0, 0, 0]"] ;
584 -> 585 ;
586 [label="X[154] <= 178.0\ngini = 0.5\nsamples = 2\nvalue = [0, 0, 1, 1, 0, 0, 0, 0, 0, 0]"] ;
584 -> 586 ;
587 [label="gini = 0.0\nsamples = 1\nvalue = [0, 0, 0, 1, 0, 0, 0, 0, 0, 0]"] ;
586 -> 587 ;
588 [label="gini = 0.0\nsamples = 1\nvalue = [0, 0, 1, 0, 0, 0, 0, 0, 0, 0]"] ;
586 -> 588 ;
589 [label="gini = 0.0\nsamples = 12\nvalue = [0, 0, 0, 0, 0, 0, 0, 0, 0, 12]"] ;
583 -> 589 ;
590 [label="X[435] <= 179.0\ngini = 0.7\nsamples = 10\nvalue = [2, 0, 3, 0, 0, 0, 1, 4, 0, 0]"] ;
582 -> 590 ;
591 [label="X[460] <= 57.5\ngini = 0.611\nsamples = 6\nvalue = [2, 0, 3, 0, 0, 0, 1, 0, 0, 0]"] ;
590 -> 591 ;
592 [label="X[212] <= 98.0\ngini = 0.444\nsamples = 3\nvalue = [2, 0, 0, 0, 0, 0, 1, 0, 0, 0]"] ;
591 -> 592 ;
593 [label="gini = 0.0\nsamples = 1\nvalue = [0, 0, 0, 0, 0, 0, 1, 0, 0, 0]"] ;
592 -> 593 ;
594 [label="gini = 0.0\nsamples = 2\nvalue = [2, 0, 0, 0, 0, 0, 0, 0, 0, 0]"] ;
592 -> 594 ;
595 [label="gini = 0.0\nsamples = 3\nvalue = [0, 0, 3, 0, 0, 0, 0, 0, 0, 0]"] ;
591 -> 595 ;
596 [label="gini = 0.0\nsamples = 4\nvalue = [0, 0, 0, 0, 0, 0, 0, 4, 0, 0]"] ;
590 -> 596 ;
597 [label="X[469] <= 16.5\ngini = 0.379\nsamples = 13\nvalue = [2, 0, 0, 0, 1, 10, 0, 0, 0, 0]"] ;
581 -> 597 ;
598 [label="gini = 0.0\nsamples = 10\nvalue = [0, 0, 0, 0, 0, 10, 0, 0, 0, 0]"] ;
597 -> 598 ;
599 [label="X[471] <= 31.0\ngini = 0.444\nsamples = 3\nvalue = [2, 0, 0, 0, 1, 0, 0, 0, 0, 0]"] ;
597 -> 599 ;
600 [label="gini = 0.0\nsamples = 1\nvalue = [0, 0, 0, 0, 1, 0, 0, 0, 0, 0]"] ;
599 -> 600 ;
601 [label="gini = 0.0\nsamples = 2\nvalue = [2, 0, 0, 0, 0, 0, 0, 0, 0, 0]"] ;
599 -> 601 ;
602 [label="X[427] <= 0.5\ngini = 0.489\nsamples = 528\nvalue = [2, 0, 32, 2, 41, 2, 7, 71, 4, 367]"] ;
562 -> 602 ;
603 [label="X[538] <= 92.5\ngini = 0.68\nsamples = 121\nvalue = [0, 0, 31, 2, 3, 1, 2, 54, 0, 28]"] ;
602 -> 603 ;
604 [label="X[232] <= 12.0\ngini = 0.58\nsamples = 93\nvalue = [0, 0, 5, 1, 3, 1, 2, 53, 0, 28]"] ;
603 -> 604 ;
605 [label="X[546] <= 210.5\ngini = 0.602\nsamples = 40\nvalue = [0, 0, 3, 1, 3, 1, 2, 6, 0, 24]"] ;
604 -> 605 ;
606 [label="X[460] <= 229.5\ngini = 0.316\nsamples = 28\nvalue = [0, 0, 0, 1, 2, 1, 0, 1, 0, 23]"] ;
605 -> 606 ;
607 [label="X[553] <= 146.0\ngini = 0.08\nsamples = 24\nvalue = [0, 0, 0, 0, 1, 0, 0, 0, 0, 23]"] ;
606 -> 607 ;
608 [label="gini = 0.0\nsamples = 23\nvalue = [0, 0, 0, 0, 0, 0, 0, 0, 0, 23]"] ;
607 -> 608 ;
609 [label="gini = 0.0\nsamples = 1\nvalue = [0, 0, 0, 0, 1, 0, 0, 0, 0, 0]"] ;
607 -> 609 ;
610 [label="X[633] <= 11.0\ngini = 0.75\nsamples = 4\nvalue = [0, 0, 0, 1, 1, 1, 0, 1, 0, 0]"] ;
606 -> 610 ;
611 [label="X[607] <= 106.5\ngini = 0.667\nsamples = 3\nvalue = [0, 0, 0, 0, 1, 1, 0, 1, 0, 0]"] ;
610 -> 611 ;
612 [label="gini = 0.0\nsamples = 1\nvalue = [0, 0, 0, 0, 0, 0, 0, 1, 0, 0]"] ;
611 -> 612 ;
613 [label="X[290] <= 250.0\ngini = 0.5\nsamples = 2\nvalue = [0, 0, 0, 0, 1, 1, 0, 0, 0, 0]"] ;
611 -> 613 ;
614 [label="gini = 0.0\nsamples = 1\nvalue = [0, 0, 0, 0, 1, 0, 0, 0, 0, 0]"] ;
613 -> 614 ;
615 [label="gini = 0.0\nsamples = 1\nvalue = [0, 0, 0, 0, 0, 1, 0, 0, 0, 0]"] ;
613 -> 615 ;
616 [label="gini = 0.0\nsamples = 1\nvalue = [0, 0, 0, 1, 0, 0, 0, 0, 0, 0]"] ;
610 -> 616 ;
617 [label="X[656] <= 19.5\ngini = 0.722\nsamples = 12\nvalue = [0, 0, 3, 0, 1, 0, 2, 5, 0, 1]"] ;
605 -> 617 ;
618 [label="X[318] <= 30.5\ngini = 0.694\nsamples = 7\nvalue = [0, 0, 3, 0, 1, 0, 2, 0, 0, 1]"] ;
617 -> 618 ;
619 [label="gini = 0.0\nsamples = 3\nvalue = [0, 0, 3, 0, 0, 0, 0, 0, 0, 0]"] ;
618 -> 619 ;
620 [label="X[540] <= 27.0\ngini = 0.625\nsamples = 4\nvalue = [0, 0, 0, 0, 1, 0, 2, 0, 0, 1]"] ;
618 -> 620 ;
621 [label="X[244] <= 120.0\ngini = 0.5\nsamples = 2\nvalue = [0, 0, 0, 0, 1, 0, 0, 0, 0, 1]"] ;
620 -> 621 ;
622 [label="gini = 0.0\nsamples = 1\nvalue = [0, 0, 0, 0, 0, 0, 0, 0, 0, 1]"] ;
621 -> 622 ;
623 [label="gini = 0.0\nsamples = 1\nvalue = [0, 0, 0, 0, 1, 0, 0, 0, 0, 0]"] ;
621 -> 623 ;
624 [label="gini = 0.0\nsamples = 2\nvalue = [0, 0, 0, 0, 0, 0, 2, 0, 0, 0]"] ;
620 -> 624 ;
625 [label="gini = 0.0\nsamples = 5\nvalue = [0, 0, 0, 0, 0, 0, 0, 5, 0, 0]"] ;
617 -> 625 ;
626 [label="X[481] <= 31.0\ngini = 0.206\nsamples = 53\nvalue = [0, 0, 2, 0, 0, 0, 0, 47, 0, 4]"] ;
604 -> 626 ;
627 [label="X[635] <= 8.0\ngini = 0.041\nsamples = 48\nvalue = [0, 0, 1, 0, 0, 0, 0, 47, 0, 0]"] ;
626 -> 627 ;
628 [label="gini = 0.0\nsamples = 47\nvalue = [0, 0, 0, 0, 0, 0, 0, 47, 0, 0]"] ;
627 -> 628 ;
629 [label="gini = 0.0\nsamples = 1\nvalue = [0, 0, 1, 0, 0, 0, 0, 0, 0, 0]"] ;
627 -> 629 ;
630 [label="X[548] <= 184.0\ngini = 0.32\nsamples = 5\nvalue = [0, 0, 1, 0, 0, 0, 0, 0, 0, 4]"] ;
626 -> 630 ;
631 [label="gini = 0.0\nsamples = 4\nvalue = [0, 0, 0, 0, 0, 0, 0, 0, 0, 4]"] ;
630 -> 631 ;
632 [label="gini = 0.0\nsamples = 1\nvalue = [0, 0, 1, 0, 0, 0, 0, 0, 0, 0]"] ;
630 -> 632 ;
633 [label="X[688] <= 94.5\ngini = 0.135\nsamples = 28\nvalue = [0, 0, 26, 1, 0, 0, 0, 1, 0, 0]"] ;
603 -> 633 ;
634 [label="gini = 0.0\nsamples = 26\nvalue = [0, 0, 26, 0, 0, 0, 0, 0, 0, 0]"] ;
633 -> 634 ;
635 [label="X[437] <= 138.0\ngini = 0.5\nsamples = 2\nvalue = [0, 0, 0, 1, 0, 0, 0, 1, 0, 0]"] ;
633 -> 635 ;
636 [label="gini = 0.0\nsamples = 1\nvalue = [0, 0, 0, 1, 0, 0, 0, 0, 0, 0]"] ;
635 -> 636 ;
637 [label="gini = 0.0\nsamples = 1\nvalue = [0, 0, 0, 0, 0, 0, 0, 1, 0, 0]"] ;
635 -> 637 ;
638 [label="X[235] <= 33.0\ngini = 0.295\nsamples = 407\nvalue = [2, 0, 1, 0, 38, 1, 5, 17, 4, 339]"] ;
602 -> 638 ;
639 [label="X[468] <= 1.0\ngini = 0.507\nsamples = 83\nvalue = [0, 0, 0, 0, 33, 1, 1, 0, 0, 48]"] ;
638 -> 639 ;
640 [label="X[375] <= 70.5\ngini = 0.344\nsamples = 56\nvalue = [0, 0, 0, 0, 11, 1, 0, 0, 0, 44]"] ;
639 -> 640 ;
641 [label="X[156] <= 34.0\ngini = 0.237\nsamples = 51\nvalue = [0, 0, 0, 0, 7, 0, 0, 0, 0, 44]"] ;
640 -> 641 ;
642 [label="X[212] <= 14.0\ngini = 0.087\nsamples = 44\nvalue = [0, 0, 0, 0, 2, 0, 0, 0, 0, 42]"] ;
641 -> 642 ;
643 [label="gini = 0.0\nsamples = 2\nvalue = [0, 0, 0, 0, 2, 0, 0, 0, 0, 0]"] ;
642 -> 643 ;
644 [label="gini = 0.0\nsamples = 42\nvalue = [0, 0, 0, 0, 0, 0, 0, 0, 0, 42]"] ;
642 -> 644 ;
645 [label="X[630] <= 19.0\ngini = 0.408\nsamples = 7\nvalue = [0, 0, 0, 0, 5, 0, 0, 0, 0, 2]"] ;
641 -> 645 ;
646 [label="gini = 0.0\nsamples = 5\nvalue = [0, 0, 0, 0, 5, 0, 0, 0, 0, 0]"] ;
645 -> 646 ;
647 [label="gini = 0.0\nsamples = 2\nvalue = [0, 0, 0, 0, 0, 0, 0, 0, 0, 2]"] ;
645 -> 647 ;
648 [label="X[599] <= 115.0\ngini = 0.32\nsamples = 5\nvalue = [0, 0, 0, 0, 4, 1, 0, 0, 0, 0]"] ;
640 -> 648 ;
649 [label="gini = 0.0\nsamples = 4\nvalue = [0, 0, 0, 0, 4, 0, 0, 0, 0, 0]"] ;
648 -> 649 ;
650 [label="gini = 0.0\nsamples = 1\nvalue = [0, 0, 0, 0, 0, 1, 0, 0, 0, 0]"] ;
648 -> 650 ;
651 [label="X[411] <= 182.5\ngini = 0.313\nsamples = 27\nvalue = [0, 0, 0, 0, 22, 0, 1, 0, 0, 4]"] ;
639 -> 651 ;
652 [label="gini = 0.0\nsamples = 22\nvalue = [0, 0, 0, 0, 22, 0, 0, 0, 0, 0]"] ;
651 -> 652 ;
653 [label="X[461] <= 164.5\ngini = 0.32\nsamples = 5\nvalue = [0, 0, 0, 0, 0, 0, 1, 0, 0, 4]"] ;
651 -> 653 ;
654 [label="gini = 0.0\nsamples = 4\nvalue = [0, 0, 0, 0, 0, 0, 0, 0, 0, 4]"] ;
653 -> 654 ;
655 [label="gini = 0.0\nsamples = 1\nvalue = [0, 0, 0, 0, 0, 0, 1, 0, 0, 0]"] ;
653 -> 655 ;
656 [label="X[485] <= 6.5\ngini = 0.19\nsamples = 324\nvalue = [2, 0, 1, 0, 5, 0, 4, 17, 4, 291]"] ;
638 -> 656 ;
657 [label="X[540] <= 8.5\ngini = 0.477\nsamples = 16\nvalue = [2, 0, 0, 0, 0, 0, 0, 11, 0, 3]"] ;
656 -> 657 ;
658 [label="X[292] <= 253.0\ngini = 0.153\nsamples = 12\nvalue = [1, 0, 0, 0, 0, 0, 0, 11, 0, 0]"] ;
657 -> 658 ;
659 [label="gini = 0.0\nsamples = 11\nvalue = [0, 0, 0, 0, 0, 0, 0, 11, 0, 0]"] ;
658 -> 659 ;
660 [label="gini = 0.0\nsamples = 1\nvalue = [1, 0, 0, 0, 0, 0, 0, 0, 0, 0]"] ;
658 -> 660 ;
661 [label="X[186] <= 187.0\ngini = 0.375\nsamples = 4\nvalue = [1, 0, 0, 0, 0, 0, 0, 0, 0, 3]"] ;
657 -> 661 ;
662 [label="gini = 0.0\nsamples = 3\nvalue = [0, 0, 0, 0, 0, 0, 0, 0, 0, 3]"] ;
661 -> 662 ;
663 [label="gini = 0.0\nsamples = 1\nvalue = [1, 0, 0, 0, 0, 0, 0, 0, 0, 0]"] ;
661 -> 663 ;
664 [label="X[498] <= 218.0\ngini = 0.125\nsamples = 308\nvalue = [0, 0, 1, 0, 5, 0, 4, 6, 4, 288]"] ;
656 -> 664 ;
665 [label="X[248] <= 19.0\ngini = 0.09\nsamples = 302\nvalue = [0, 0, 1, 0, 5, 0, 0, 5, 3, 288]"] ;
664 -> 665 ;
666 [label="X[442] <= 253.5\ngini = 0.066\nsamples = 298\nvalue = [0, 0, 1, 0, 3, 0, 0, 5, 1, 288]"] ;
665 -> 666 ;
667 [label="X[651] <= 94.5\ngini = 0.053\nsamples = 296\nvalue = [0, 0, 1, 0, 1, 0, 0, 5, 1, 288]"] ;
666 -> 667 ;
668 [label="X[332] <= 89.0\ngini = 0.047\nsamples = 295\nvalue = [0, 0, 0, 0, 1, 0, 0, 5, 1, 288]"] ;
667 -> 668 ;
669 [label="X[228] <= 29.5\ngini = 0.04\nsamples = 294\nvalue = [0, 0, 0, 0, 0, 0, 0, 5, 1, 288]"] ;
668 -> 669 ;
670 [label="X[413] <= 254.5\ngini = 0.034\nsamples = 293\nvalue = [0, 0, 0, 0, 0, 0, 0, 4, 1, 288]"] ;
669 -> 670 ;
671 [label="X[484] <= 39.0\ngini = 0.027\nsamples = 291\nvalue = [0, 0, 0, 0, 0, 0, 0, 3, 1, 287]"] ;
670 -> 671 ;
672 [label="X[187] <= 60.0\ngini = 0.406\nsamples = 8\nvalue = [0, 0, 0, 0, 0, 0, 0, 1, 1, 6]"] ;
671 -> 672 ;
673 [label="gini = 0.0\nsamples = 6\nvalue = [0, 0, 0, 0, 0, 0, 0, 0, 0, 6]"] ;
672 -> 673 ;
674 [label="X[216] <= 248.5\ngini = 0.5\nsamples = 2\nvalue = [0, 0, 0, 0, 0, 0, 0, 1, 1, 0]"] ;
672 -> 674 ;
675 [label="gini = 0.0\nsamples = 1\nvalue = [0, 0, 0, 0, 0, 0, 0, 0, 1, 0]"] ;
674 -> 675 ;
676 [label="gini = 0.0\nsamples = 1\nvalue = [0, 0, 0, 0, 0, 0, 0, 1, 0, 0]"] ;
674 -> 676 ;
677 [label="X[743] <= 141.0\ngini = 0.014\nsamples = 283\nvalue = [0, 0, 0, 0, 0, 0, 0, 2, 0, 281]"] ;
671 -> 677 ;
678 [label="X[540] <= 176.5\ngini = 0.007\nsamples = 277\nvalue = [0, 0, 0, 0, 0, 0, 0, 1, 0, 276]"] ;
677 -> 678 ;
679 [label="gini = 0.0\nsamples = 266\nvalue = [0, 0, 0, 0, 0, 0, 0, 0, 0, 266]"] ;
678 -> 679 ;
680 [label="X[540] <= 178.5\ngini = 0.165\nsamples = 11\nvalue = [0, 0, 0, 0, 0, 0, 0, 1, 0, 10]"] ;
678 -> 680 ;
681 [label="gini = 0.0\nsamples = 1\nvalue = [0, 0, 0, 0, 0, 0, 0, 1, 0, 0]"] ;
680 -> 681 ;
682 [label="gini = 0.0\nsamples = 10\nvalue = [0, 0, 0, 0, 0, 0, 0, 0, 0, 10]"] ;
680 -> 682 ;
683 [label="X[521] <= 252.5\ngini = 0.278\nsamples = 6\nvalue = [0, 0, 0, 0, 0, 0, 0, 1, 0, 5]"] ;
677 -> 683 ;
684 [label="gini = 0.0\nsamples = 5\nvalue = [0, 0, 0, 0, 0, 0, 0, 0, 0, 5]"] ;
683 -> 684 ;
685 [label="gini = 0.0\nsamples = 1\nvalue = [0, 0, 0, 0, 0, 0, 0, 1, 0, 0]"] ;
683 -> 685 ;
686 [label="X[240] <= 35.5\ngini = 0.5\nsamples = 2\nvalue = [0, 0, 0, 0, 0, 0, 0, 1, 0, 1]"] ;
670 -> 686 ;
687 [label="gini = 0.0\nsamples = 1\nvalue = [0, 0, 0, 0, 0, 0, 0, 0, 0, 1]"] ;
686 -> 687 ;
688 [label="gini = 0.0\nsamples = 1\nvalue = [0, 0, 0, 0, 0, 0, 0, 1, 0, 0]"] ;
686 -> 688 ;
689 [label="gini = 0.0\nsamples = 1\nvalue = [0, 0, 0, 0, 0, 0, 0, 1, 0, 0]"] ;
669 -> 689 ;
690 [label="gini = 0.0\nsamples = 1\nvalue = [0, 0, 0, 0, 1, 0, 0, 0, 0, 0]"] ;
668 -> 690 ;
691 [label="gini = 0.0\nsamples = 1\nvalue = [0, 0, 1, 0, 0, 0, 0, 0, 0, 0]"] ;
667 -> 691 ;
692 [label="gini = 0.0\nsamples = 2\nvalue = [0, 0, 0, 0, 2, 0, 0, 0, 0, 0]"] ;
666 -> 692 ;
693 [label="X[576] <= 23.5\ngini = 0.5\nsamples = 4\nvalue = [0, 0, 0, 0, 2, 0, 0, 0, 2, 0]"] ;
665 -> 693 ;
694 [label="gini = 0.0\nsamples = 2\nvalue = [0, 0, 0, 0, 0, 0, 0, 0, 2, 0]"] ;
693 -> 694 ;
695 [label="gini = 0.0\nsamples = 2\nvalue = [0, 0, 0, 0, 2, 0, 0, 0, 0, 0]"] ;
693 -> 695 ;
696 [label="X[577] <= 32.0\ngini = 0.5\nsamples = 6\nvalue = [0, 0, 0, 0, 0, 0, 4, 1, 1, 0]"] ;
664 -> 696 ;
697 [label="X[519] <= 132.0\ngini = 0.5\nsamples = 2\nvalue = [0, 0, 0, 0, 0, 0, 0, 1, 1, 0]"] ;
696 -> 697 ;
698 [label="gini = 0.0\nsamples = 1\nvalue = [0, 0, 0, 0, 0, 0, 0, 0, 1, 0]"] ;
697 -> 698 ;
699 [label="gini = 0.0\nsamples = 1\nvalue = [0, 0, 0, 0, 0, 0, 0, 1, 0, 0]"] ;
697 -> 699 ;
700 [label="gini = 0.0\nsamples = 4\nvalue = [0, 0, 0, 0, 0, 0, 4, 0, 0, 0]"] ;
696 -> 700 ;
701 [label="X[516] <= 14.5\ngini = 0.848\nsamples = 2950\nvalue = [11, 333, 164, 331, 167, 411, 149, 171, 818, 395]"] ;
3 -> 701 ;
702 [label="X[353] <= 2.5\ngini = 0.788\nsamples = 1269\nvalue = [6, 36, 12, 302, 121, 379, 9, 38, 78, 288]"] ;
701 -> 702 ;
703 [label="X[322] <= 6.5\ngini = 0.603\nsamples = 621\nvalue = [6, 36, 3, 141, 24, 361, 5, 2, 18, 25]"] ;
702 -> 703 ;
704 [label="X[355] <= 12.5\ngini = 0.406\nsamples = 425\nvalue = [4, 14, 2, 23, 21, 325, 3, 1, 12, 20]"] ;
703 -> 704 ;
705 [label="X[351] <= 99.0\ngini = 0.307\nsamples = 392\nvalue = [3, 14, 2, 21, 7, 325, 3, 0, 7, 10]"] ;
704 -> 705 ;
706 [label="X[657] <= 2.5\ngini = 0.245\nsamples = 374\nvalue = [3, 14, 1, 18, 2, 324, 3, 0, 2, 7]"] ;
705 -> 706 ;
707 [label="X[375] <= 125.5\ngini = 0.656\nsamples = 64\nvalue = [1, 14, 1, 6, 2, 34, 3, 0, 1, 2]"] ;
706 -> 707 ;
708 [label="X[408] <= 63.5\ngini = 0.576\nsamples = 21\nvalue = [0, 13, 0, 0, 2, 2, 3, 0, 0, 1]"] ;
707 -> 708 ;
709 [label="gini = 0.0\nsamples = 13\nvalue = [0, 13, 0, 0, 0, 0, 0, 0, 0, 0]"] ;
708 -> 709 ;
710 [label="X[346] <= 17.5\ngini = 0.719\nsamples = 8\nvalue = [0, 0, 0, 0, 2, 2, 3, 0, 0, 1]"] ;
708 -> 710 ;
711 [label="X[491] <= 80.5\ngini = 0.64\nsamples = 5\nvalue = [0, 0, 0, 0, 2, 2, 0, 0, 0, 1]"] ;
710 -> 711 ;
712 [label="gini = 0.0\nsamples = 2\nvalue = [0, 0, 0, 0, 0, 2, 0, 0, 0, 0]"] ;
711 -> 712 ;
713 [label="X[261] <= 41.0\ngini = 0.444\nsamples = 3\nvalue = [0, 0, 0, 0, 2, 0, 0, 0, 0, 1]"] ;
711 -> 713 ;
714 [label="gini = 0.0\nsamples = 2\nvalue = [0, 0, 0, 0, 2, 0, 0, 0, 0, 0]"] ;
713 -> 714 ;
715 [label="gini = 0.0\nsamples = 1\nvalue = [0, 0, 0, 0, 0, 0, 0, 0, 0, 1]"] ;
713 -> 715 ;
716 [label="gini = 0.0\nsamples = 3\nvalue = [0, 0, 0, 0, 0, 0, 3, 0, 0, 0]"] ;
710 -> 716 ;
717 [label="X[175] <= 125.5\ngini = 0.424\nsamples = 43\nvalue = [1, 1, 1, 6, 0, 32, 0, 0, 1, 1]"] ;
707 -> 717 ;
718 [label="X[302] <= 67.5\ngini = 0.321\nsamples = 39\nvalue = [1, 1, 1, 2, 0, 32, 0, 0, 1, 1]"] ;
717 -> 718 ;
719 [label="X[489] <= 14.0\ngini = 0.205\nsamples = 36\nvalue = [0, 1, 0, 2, 0, 32, 0, 0, 0, 1]"] ;
718 -> 719 ;
720 [label="X[293] <= 237.5\ngini = 0.111\nsamples = 34\nvalue = [0, 0, 0, 2, 0, 32, 0, 0, 0, 0]"] ;
719 -> 720 ;
721 [label="gini = 0.0\nsamples = 31\nvalue = [0, 0, 0, 0, 0, 31, 0, 0, 0, 0]"] ;
720 -> 721 ;
722 [label="X[219] <= 86.0\ngini = 0.444\nsamples = 3\nvalue = [0, 0, 0, 2, 0, 1, 0, 0, 0, 0]"] ;
720 -> 722 ;
723 [label="gini = 0.0\nsamples = 2\nvalue = [0, 0, 0, 2, 0, 0, 0, 0, 0, 0]"] ;
722 -> 723 ;
724 [label="gini = 0.0\nsamples = 1\nvalue = [0, 0, 0, 0, 0, 1, 0, 0, 0, 0]"] ;
722 -> 724 ;
725 [label="X[297] <= 68.5\ngini = 0.5\nsamples = 2\nvalue = [0, 1, 0, 0, 0, 0, 0, 0, 0, 1]"] ;
719 -> 725 ;
726 [label="gini = 0.0\nsamples = 1\nvalue = [0, 1, 0, 0, 0, 0, 0, 0, 0, 0]"] ;
725 -> 726 ;
727 [label="gini = 0.0\nsamples = 1\nvalue = [0, 0, 0, 0, 0, 0, 0, 0, 0, 1]"] ;
725 -> 727 ;
728 [label="X[414] <= 72.0\ngini = 0.667\nsamples = 3\nvalue = [1, 0, 1, 0, 0, 0, 0, 0, 1, 0]"] ;
718 -> 728 ;
729 [label="X[315] <= 119.5\ngini = 0.5\nsamples = 2\nvalue = [1, 0, 0, 0, 0, 0, 0, 0, 1, 0]"] ;
728 -> 729 ;
730 [label="gini = 0.0\nsamples = 1\nvalue = [1, 0, 0, 0, 0, 0, 0, 0, 0, 0]"] ;
729 -> 730 ;
731 [label="gini = 0.0\nsamples = 1\nvalue = [0, 0, 0, 0, 0, 0, 0, 0, 1, 0]"] ;
729 -> 731 ;
732 [label="gini = 0.0\nsamples = 1\nvalue = [0, 0, 1, 0, 0, 0, 0, 0, 0, 0]"] ;
728 -> 732 ;
733 [label="gini = 0.0\nsamples = 4\nvalue = [0, 0, 0, 4, 0, 0, 0, 0, 0, 0]"] ;
717 -> 733 ;
734 [label="X[147] <= 59.0\ngini = 0.123\nsamples = 310\nvalue = [2, 0, 0, 12, 0, 290, 0, 0, 1, 5]"] ;
706 -> 734 ;
735 [label="X[454] <= 127.0\ngini = 0.095\nsamples = 304\nvalue = [2, 0, 0, 7, 0, 289, 0, 0, 1, 5]"] ;
734 -> 735 ;
736 [label="X[356] <= 170.5\ngini = 0.083\nsamples = 302\nvalue = [0, 0, 0, 7, 0, 289, 0, 0, 1, 5]"] ;
735 -> 736 ;
737 [label="X[742] <= 84.0\ngini = 0.077\nsamples = 301\nvalue = [0, 0, 0, 7, 0, 289, 0, 0, 1, 4]"] ;
736 -> 737 ;
738 [label="X[228] <= 128.5\ngini = 0.071\nsamples = 300\nvalue = [0, 0, 0, 7, 0, 289, 0, 0, 1, 3]"] ;
737 -> 738 ;
739 [label="X[235] <= 8.0\ngini = 0.065\nsamples = 299\nvalue = [0, 0, 0, 6, 0, 289, 0, 0, 1, 3]"] ;
738 -> 739 ;
740 [label="X[680] <= 208.0\ngini = 0.305\nsamples = 45\nvalue = [0, 0, 0, 6, 0, 37, 0, 0, 1, 1]"] ;
739 -> 740 ;
741 [label="X[123] <= 25.5\ngini = 0.25\nsamples = 43\nvalue = [0, 0, 0, 4, 0, 37, 0, 0, 1, 1]"] ;
740 -> 741 ;
742 [label="X[542] <= 38.0\ngini = 0.182\nsamples = 41\nvalue = [0, 0, 0, 2, 0, 37, 0, 0, 1, 1]"] ;
741 -> 742 ;
743 [label="X[294] <= 203.5\ngini = 0.099\nsamples = 39\nvalue = [0, 0, 0, 1, 0, 37, 0, 0, 0, 1]"] ;
742 -> 743 ;
744 [label="X[546] <= 235.0\ngini = 0.051\nsamples = 38\nvalue = [0, 0, 0, 0, 0, 37, 0, 0, 0, 1]"] ;
743 -> 744 ;
745 [label="gini = 0.0\nsamples = 36\nvalue = [0, 0, 0, 0, 0, 36, 0, 0, 0, 0]"] ;
744 -> 745 ;
746 [label="X[239] <= 159.5\ngini = 0.5\nsamples = 2\nvalue = [0, 0, 0, 0, 0, 1, 0, 0, 0, 1]"] ;
744 -> 746 ;
747 [label="gini = 0.0\nsamples = 1\nvalue = [0, 0, 0, 0, 0, 0, 0, 0, 0, 1]"] ;
746 -> 747 ;
748 [label="gini = 0.0\nsamples = 1\nvalue = [0, 0, 0, 0, 0, 1, 0, 0, 0, 0]"] ;
746 -> 748 ;
749 [label="gini = 0.0\nsamples = 1\nvalue = [0, 0, 0, 1, 0, 0, 0, 0, 0, 0]"] ;
743 -> 749 ;
750 [label="X[129] <= 111.0\ngini = 0.5\nsamples = 2\nvalue = [0, 0, 0, 1, 0, 0, 0, 0, 1, 0]"] ;
742 -> 750 ;
751 [label="gini = 0.0\nsamples = 1\nvalue = [0, 0, 0, 1, 0, 0, 0, 0, 0, 0]"] ;
750 -> 751 ;
752 [label="gini = 0.0\nsamples = 1\nvalue = [0, 0, 0, 0, 0, 0, 0, 0, 1, 0]"] ;
750 -> 752 ;
753 [label="gini = 0.0\nsamples = 2\nvalue = [0, 0, 0, 2, 0, 0, 0, 0, 0, 0]"] ;
741 -> 753 ;
754 [label="gini = 0.0\nsamples = 2\nvalue = [0, 0, 0, 2, 0, 0, 0, 0, 0, 0]"] ;
740 -> 754 ;
755 [label="X[714] <= 102.0\ngini = 0.016\nsamples = 254\nvalue = [0, 0, 0, 0, 0, 252, 0, 0, 0, 2]"] ;
739 -> 755 ;
756 [label="gini = 0.0\nsamples = 243\nvalue = [0, 0, 0, 0, 0, 243, 0, 0, 0, 0]"] ;
755 -> 756 ;
757 [label="X[437] <= 237.5\ngini = 0.298\nsamples = 11\nvalue = [0, 0, 0, 0, 0, 9, 0, 0, 0, 2]"] ;
755 -> 757 ;
758 [label="gini = 0.0\nsamples = 9\nvalue = [0, 0, 0, 0, 0, 9, 0, 0, 0, 0]"] ;
757 -> 758 ;
759 [label="gini = 0.0\nsamples = 2\nvalue = [0, 0, 0, 0, 0, 0, 0, 0, 0, 2]"] ;
757 -> 759 ;
760 [label="gini = 0.0\nsamples = 1\nvalue = [0, 0, 0, 1, 0, 0, 0, 0, 0, 0]"] ;
738 -> 760 ;
761 [label="gini = 0.0\nsamples = 1\nvalue = [0, 0, 0, 0, 0, 0, 0, 0, 0, 1]"] ;
737 -> 761 ;
762 [label="gini = 0.0\nsamples = 1\nvalue = [0, 0, 0, 0, 0, 0, 0, 0, 0, 1]"] ;
736 -> 762 ;
763 [label="gini = 0.0\nsamples = 2\nvalue = [2, 0, 0, 0, 0, 0, 0, 0, 0, 0]"] ;
735 -> 763 ;
764 [label="X[666] <= 49.0\ngini = 0.278\nsamples = 6\nvalue = [0, 0, 0, 5, 0, 1, 0, 0, 0, 0]"] ;
734 -> 764 ;
765 [label="gini = 0.0\nsamples = 5\nvalue = [0, 0, 0, 5, 0, 0, 0, 0, 0, 0]"] ;
764 -> 765 ;
766 [label="gini = 0.0\nsamples = 1\nvalue = [0, 0, 0, 0, 0, 1, 0, 0, 0, 0]"] ;
764 -> 766 ;
767 [label="X[461] <= 20.0\ngini = 0.784\nsamples = 18\nvalue = [0, 0, 1, 3, 5, 1, 0, 0, 5, 3]"] ;
705 -> 767 ;
768 [label="X[211] <= 47.0\ngini = 0.734\nsamples = 13\nvalue = [0, 0, 1, 3, 5, 1, 0, 0, 0, 3]"] ;
767 -> 768 ;
769 [label="X[157] <= 35.5\ngini = 0.278\nsamples = 6\nvalue = [0, 0, 0, 0, 5, 1, 0, 0, 0, 0]"] ;
768 -> 769 ;
770 [label="gini = 0.0\nsamples = 5\nvalue = [0, 0, 0, 0, 5, 0, 0, 0, 0, 0]"] ;
769 -> 770 ;
771 [label="gini = 0.0\nsamples = 1\nvalue = [0, 0, 0, 0, 0, 1, 0, 0, 0, 0]"] ;
769 -> 771 ;
772 [label="X[319] <= 111.5\ngini = 0.612\nsamples = 7\nvalue = [0, 0, 1, 3, 0, 0, 0, 0, 0, 3]"] ;
768 -> 772 ;
773 [label="X[514] <= 11.5\ngini = 0.375\nsamples = 4\nvalue = [0, 0, 1, 3, 0, 0, 0, 0, 0, 0]"] ;
772 -> 773 ;
774 [label="gini = 0.0\nsamples = 3\nvalue = [0, 0, 0, 3, 0, 0, 0, 0, 0, 0]"] ;
773 -> 774 ;
775 [label="gini = 0.0\nsamples = 1\nvalue = [0, 0, 1, 0, 0, 0, 0, 0, 0, 0]"] ;
773 -> 775 ;
776 [label="gini = 0.0\nsamples = 3\nvalue = [0, 0, 0, 0, 0, 0, 0, 0, 0, 3]"] ;
772 -> 776 ;
777 [label="gini = 0.0\nsamples = 5\nvalue = [0, 0, 0, 0, 0, 0, 0, 0, 5, 0]"] ;
767 -> 777 ;
778 [label="X[400] <= 27.0\ngini = 0.7\nsamples = 33\nvalue = [1, 0, 0, 2, 14, 0, 0, 1, 5, 10]"] ;
704 -> 778 ;
779 [label="X[633] <= 75.5\ngini = 0.599\nsamples = 18\nvalue = [0, 0, 0, 2, 0, 0, 0, 1, 5, 10]"] ;
778 -> 779 ;
780 [label="X[266] <= 156.5\ngini = 0.165\nsamples = 11\nvalue = [0, 0, 0, 0, 0, 0, 0, 1, 0, 10]"] ;
779 -> 780 ;
781 [label="gini = 0.0\nsamples = 10\nvalue = [0, 0, 0, 0, 0, 0, 0, 0, 0, 10]"] ;
780 -> 781 ;
782 [label="gini = 0.0\nsamples = 1\nvalue = [0, 0, 0, 0, 0, 0, 0, 1, 0, 0]"] ;
780 -> 782 ;
783 [label="X[566] <= 10.5\ngini = 0.408\nsamples = 7\nvalue = [0, 0, 0, 2, 0, 0, 0, 0, 5, 0]"] ;
779 -> 783 ;
784 [label="gini = 0.0\nsamples = 5\nvalue = [0, 0, 0, 0, 0, 0, 0, 0, 5, 0]"] ;
783 -> 784 ;
785 [label="gini = 0.0\nsamples = 2\nvalue = [0, 0, 0, 2, 0, 0, 0, 0, 0, 0]"] ;
783 -> 785 ;
786 [label="X[131] <= 109.5\ngini = 0.124\nsamples = 15\nvalue = [1, 0, 0, 0, 14, 0, 0, 0, 0, 0]"] ;
778 -> 786 ;
787 [label="gini = 0.0\nsamples = 14\nvalue = [0, 0, 0, 0, 14, 0, 0, 0, 0, 0]"] ;
786 -> 787 ;
788 [label="gini = 0.0\nsamples = 1\nvalue = [1, 0, 0, 0, 0, 0, 0, 0, 0, 0]"] ;
786 -> 788 ;
789 [label="X[546] <= 2.0\ngini = 0.589\nsamples = 196\nvalue = [2, 22, 1, 118, 3, 36, 2, 1, 6, 5]"] ;
703 -> 789 ;
790 [label="X[236] <= 222.0\ngini = 0.251\nsamples = 130\nvalue = [0, 0, 0, 112, 1, 10, 0, 1, 2, 4]"] ;
789 -> 790 ;
791 [label="X[290] <= 155.5\ngini = 0.113\nsamples = 119\nvalue = [0, 0, 0, 112, 0, 3, 0, 1, 1, 2]"] ;
790 -> 791 ;
792 [label="X[716] <= 161.5\ngini = 0.067\nsamples = 116\nvalue = [0, 0, 0, 112, 0, 1, 0, 1, 0, 2]"] ;
791 -> 792 ;
793 [label="X[239] <= 254.5\ngini = 0.035\nsamples = 114\nvalue = [0, 0, 0, 112, 0, 1, 0, 0, 0, 1]"] ;
792 -> 793 ;
794 [label="X[350] <= 130.5\ngini = 0.018\nsamples = 113\nvalue = [0, 0, 0, 112, 0, 0, 0, 0, 0, 1]"] ;
793 -> 794 ;
795 [label="gini = 0.0\nsamples = 112\nvalue = [0, 0, 0, 112, 0, 0, 0, 0, 0, 0]"] ;
794 -> 795 ;
796 [label="gini = 0.0\nsamples = 1\nvalue = [0, 0, 0, 0, 0, 0, 0, 0, 0, 1]"] ;
794 -> 796 ;
797 [label="gini = 0.0\nsamples = 1\nvalue = [0, 0, 0, 0, 0, 1, 0, 0, 0, 0]"] ;
793 -> 797 ;
798 [label="X[434] <= 100.0\ngini = 0.5\nsamples = 2\nvalue = [0, 0, 0, 0, 0, 0, 0, 1, 0, 1]"] ;
792 -> 798 ;
799 [label="gini = 0.0\nsamples = 1\nvalue = [0, 0, 0, 0, 0, 0, 0, 0, 0, 1]"] ;
798 -> 799 ;
800 [label="gini = 0.0\nsamples = 1\nvalue = [0, 0, 0, 0, 0, 0, 0, 1, 0, 0]"] ;
798 -> 800 ;
801 [label="X[290] <= 201.0\ngini = 0.444\nsamples = 3\nvalue = [0, 0, 0, 0, 0, 2, 0, 0, 1, 0]"] ;
791 -> 801 ;
802 [label="gini = 0.0\nsamples = 1\nvalue = [0, 0, 0, 0, 0, 0, 0, 0, 1, 0]"] ;
801 -> 802 ;
803 [label="gini = 0.0\nsamples = 2\nvalue = [0, 0, 0, 0, 0, 2, 0, 0, 0, 0]"] ;
801 -> 803 ;
804 [label="X[180] <= 13.5\ngini = 0.545\nsamples = 11\nvalue = [0, 0, 0, 0, 1, 7, 0, 0, 1, 2]"] ;
790 -> 804 ;
805 [label="X[660] <= 11.0\ngini = 0.625\nsamples = 4\nvalue = [0, 0, 0, 0, 1, 0, 0, 0, 1, 2]"] ;
804 -> 805 ;
806 [label="X[378] <= 104.5\ngini = 0.5\nsamples = 2\nvalue = [0, 0, 0, 0, 1, 0, 0, 0, 1, 0]"] ;
805 -> 806 ;
807 [label="gini = 0.0\nsamples = 1\nvalue = [0, 0, 0, 0, 0, 0, 0, 0, 1, 0]"] ;
806 -> 807 ;
808 [label="gini = 0.0\nsamples = 1\nvalue = [0, 0, 0, 0, 1, 0, 0, 0, 0, 0]"] ;
806 -> 808 ;
809 [label="gini = 0.0\nsamples = 2\nvalue = [0, 0, 0, 0, 0, 0, 0, 0, 0, 2]"] ;
805 -> 809 ;
810 [label="gini = 0.0\nsamples = 7\nvalue = [0, 0, 0, 0, 0, 7, 0, 0, 0, 0]"] ;
804 -> 810 ;
811 [label="X[243] <= 1.0\ngini = 0.719\nsamples = 66\nvalue = [2, 22, 1, 6, 2, 26, 2, 0, 4, 1]"] ;
789 -> 811 ;
812 [label="X[436] <= 16.0\ngini = 0.652\nsamples = 39\nvalue = [1, 22, 1, 4, 2, 3, 2, 0, 3, 1]"] ;
811 -> 812 ;
813 [label="gini = 0.0\nsamples = 22\nvalue = [0, 22, 0, 0, 0, 0, 0, 0, 0, 0]"] ;
812 -> 813 ;
814 [label="X[653] <= 84.5\ngini = 0.844\nsamples = 17\nvalue = [1, 0, 1, 4, 2, 3, 2, 0, 3, 1]"] ;
812 -> 814 ;
815 [label="X[548] <= 81.5\ngini = 0.806\nsamples = 12\nvalue = [0, 0, 1, 0, 2, 3, 2, 0, 3, 1]"] ;
814 -> 815 ;
816 [label="X[462] <= 246.0\ngini = 0.765\nsamples = 9\nvalue = [0, 0, 1, 0, 2, 0, 2, 0, 3, 1]"] ;
815 -> 816 ;
817 [label="X[179] <= 36.0\ngini = 0.722\nsamples = 6\nvalue = [0, 0, 1, 0, 2, 0, 2, 0, 0, 1]"] ;
816 -> 817 ;
818 [label="X[296] <= 20.0\ngini = 0.625\nsamples = 4\nvalue = [0, 0, 1, 0, 0, 0, 2, 0, 0, 1]"] ;
817 -> 818 ;
819 [label="gini = 0.0\nsamples = 2\nvalue = [0, 0, 0, 0, 0, 0, 2, 0, 0, 0]"] ;
818 -> 819 ;
820 [label="X[713] <= 126.0\ngini = 0.5\nsamples = 2\nvalue = [0, 0, 1, 0, 0, 0, 0, 0, 0, 1]"] ;
818 -> 820 ;
821 [label="gini = 0.0\nsamples = 1\nvalue = [0, 0, 1, 0, 0, 0, 0, 0, 0, 0]"] ;
820 -> 821 ;
822 [label="gini = 0.0\nsamples = 1\nvalue = [0, 0, 0, 0, 0, 0, 0, 0, 0, 1]"] ;
820 -> 822 ;
823 [label="gini = 0.0\nsamples = 2\nvalue = [0, 0, 0, 0, 2, 0, 0, 0, 0, 0]"] ;
817 -> 823 ;
824 [label="gini = 0.0\nsamples = 3\nvalue = [0, 0, 0, 0, 0, 0, 0, 0, 3, 0]"] ;
816 -> 824 ;
825 [label="gini = 0.0\nsamples = 3\nvalue = [0, 0, 0, 0, 0, 3, 0, 0, 0, 0]"] ;
815 -> 825 ;
826 [label="X[266] <= 243.0\ngini = 0.32\nsamples = 5\nvalue = [1, 0, 0, 4, 0, 0, 0, 0, 0, 0]"] ;
814 -> 826 ;
827 [label="gini = 0.0\nsamples = 4\nvalue = [0, 0, 0, 4, 0, 0, 0, 0, 0, 0]"] ;
826 -> 827 ;
828 [label="gini = 0.0\nsamples = 1\nvalue = [1, 0, 0, 0, 0, 0, 0, 0, 0, 0]"] ;
826 -> 828 ;
829 [label="X[266] <= 48.5\ngini = 0.266\nsamples = 27\nvalue = [1, 0, 0, 2, 0, 23, 0, 0, 1, 0]"] ;
811 -> 829 ;
830 [label="X[434] <= 150.5\ngini = 0.625\nsamples = 4\nvalue = [0, 0, 0, 2, 0, 1, 0, 0, 1, 0]"] ;
829 -> 830 ;
831 [label="gini = 0.0\nsamples = 2\nvalue = [0, 0, 0, 2, 0, 0, 0, 0, 0, 0]"] ;
830 -> 831 ;
832 [label="X[489] <= 32.0\ngini = 0.5\nsamples = 2\nvalue = [0, 0, 0, 0, 0, 1, 0, 0, 1, 0]"] ;
830 -> 832 ;
833 [label="gini = 0.0\nsamples = 1\nvalue = [0, 0, 0, 0, 0, 0, 0, 0, 1, 0]"] ;
832 -> 833 ;
834 [label="gini = 0.0\nsamples = 1\nvalue = [0, 0, 0, 0, 0, 1, 0, 0, 0, 0]"] ;
832 -> 834 ;
835 [label="X[425] <= 18.5\ngini = 0.083\nsamples = 23\nvalue = [1, 0, 0, 0, 0, 22, 0, 0, 0, 0]"] ;
829 -> 835 ;
836 [label="gini = 0.0\nsamples = 22\nvalue = [0, 0, 0, 0, 0, 22, 0, 0, 0, 0]"] ;
835 -> 836 ;
837 [label="gini = 0.0\nsamples = 1\nvalue = [1, 0, 0, 0, 0, 0, 0, 0, 0, 0]"] ;
835 -> 837 ;
838 [label="X[346] <= 1.0\ngini = 0.738\nsamples = 648\nvalue = [0, 0, 9, 161, 97, 18, 4, 36, 60, 263]"] ;
702 -> 838 ;
839 [label="X[652] <= 59.0\ngini = 0.616\nsamples = 242\nvalue = [0, 0, 9, 142, 10, 4, 3, 26, 12, 36]"] ;
838 -> 839 ;
840 [label="X[178] <= 16.5\ngini = 0.778\nsamples = 154\nvalue = [0, 0, 9, 55, 10, 4, 3, 26, 12, 35]"] ;
839 -> 840 ;
841 [label="X[295] <= 22.5\ngini = 0.769\nsamples = 90\nvalue = [0, 0, 5, 12, 8, 2, 0, 22, 8, 33]"] ;
840 -> 841 ;
842 [label="X[598] <= 28.5\ngini = 0.693\nsamples = 59\nvalue = [0, 0, 5, 6, 6, 2, 0, 2, 8, 30]"] ;
841 -> 842 ;
843 [label="X[211] <= 143.5\ngini = 0.544\nsamples = 46\nvalue = [0, 0, 4, 2, 6, 2, 0, 2, 0, 30]"] ;
842 -> 843 ;
844 [label="X[409] <= 75.5\ngini = 0.628\nsamples = 11\nvalue = [0, 0, 2, 0, 6, 2, 0, 1, 0, 0]"] ;
843 -> 844 ;
845 [label="X[627] <= 38.5\ngini = 0.5\nsamples = 4\nvalue = [0, 0, 2, 0, 0, 2, 0, 0, 0, 0]"] ;
844 -> 845 ;
846 [label="gini = 0.0\nsamples = 2\nvalue = [0, 0, 2, 0, 0, 0, 0, 0, 0, 0]"] ;
845 -> 846 ;
847 [label="gini = 0.0\nsamples = 2\nvalue = [0, 0, 0, 0, 0, 2, 0, 0, 0, 0]"] ;
845 -> 847 ;
848 [label="X[414] <= 204.0\ngini = 0.245\nsamples = 7\nvalue = [0, 0, 0, 0, 6, 0, 0, 1, 0, 0]"] ;
844 -> 848 ;
849 [label="gini = 0.0\nsamples = 6\nvalue = [0, 0, 0, 0, 6, 0, 0, 0, 0, 0]"] ;
848 -> 849 ;
850 [label="gini = 0.0\nsamples = 1\nvalue = [0, 0, 0, 0, 0, 0, 0, 1, 0, 0]"] ;
848 -> 850 ;
851 [label="X[205] <= 96.5\ngini = 0.258\nsamples = 35\nvalue = [0, 0, 2, 2, 0, 0, 0, 1, 0, 30]"] ;
843 -> 851 ;
852 [label="X[262] <= 254.5\ngini = 0.062\nsamples = 31\nvalue = [0, 0, 0, 1, 0, 0, 0, 0, 0, 30]"] ;
851 -> 852 ;
853 [label="gini = 0.0\nsamples = 30\nvalue = [0, 0, 0, 0, 0, 0, 0, 0, 0, 30]"] ;
852 -> 853 ;
854 [label="gini = 0.0\nsamples = 1\nvalue = [0, 0, 0, 1, 0, 0, 0, 0, 0, 0]"] ;
852 -> 854 ;
855 [label="X[287] <= 98.5\ngini = 0.625\nsamples = 4\nvalue = [0, 0, 2, 1, 0, 0, 0, 1, 0, 0]"] ;
851 -> 855 ;
856 [label="gini = 0.0\nsamples = 2\nvalue = [0, 0, 2, 0, 0, 0, 0, 0, 0, 0]"] ;
855 -> 856 ;
857 [label="X[603] <= 54.0\ngini = 0.5\nsamples = 2\nvalue = [0, 0, 0, 1, 0, 0, 0, 1, 0, 0]"] ;
855 -> 857 ;
858 [label="gini = 0.0\nsamples = 1\nvalue = [0, 0, 0, 1, 0, 0, 0, 0, 0, 0]"] ;
857 -> 858 ;
859 [label="gini = 0.0\nsamples = 1\nvalue = [0, 0, 0, 0, 0, 0, 0, 1, 0, 0]"] ;
857 -> 859 ;
860 [label="X[320] <= 70.0\ngini = 0.521\nsamples = 13\nvalue = [0, 0, 1, 4, 0, 0, 0, 0, 8, 0]"] ;
842 -> 860 ;
861 [label="X[325] <= 254.0\ngini = 0.32\nsamples = 5\nvalue = [0, 0, 1, 4, 0, 0, 0, 0, 0, 0]"] ;
860 -> 861 ;
862 [label="gini = 0.0\nsamples = 4\nvalue = [0, 0, 0, 4, 0, 0, 0, 0, 0, 0]"] ;
861 -> 862 ;
863 [label="gini = 0.0\nsamples = 1\nvalue = [0, 0, 1, 0, 0, 0, 0, 0, 0, 0]"] ;
861 -> 863 ;
864 [label="gini = 0.0\nsamples = 8\nvalue = [0, 0, 0, 0, 0, 0, 0, 0, 8, 0]"] ;
860 -> 864 ;
865 [label="X[546] <= 86.0\ngini = 0.533\nsamples = 31\nvalue = [0, 0, 0, 6, 2, 0, 0, 20, 0, 3]"] ;
841 -> 865 ;
866 [label="X[265] <= 112.5\ngini = 0.612\nsamples = 11\nvalue = [0, 0, 0, 6, 1, 0, 0, 1, 0, 3]"] ;
865 -> 866 ;
867 [label="X[268] <= 246.0\ngini = 0.56\nsamples = 5\nvalue = [0, 0, 0, 0, 1, 0, 0, 1, 0, 3]"] ;
866 -> 867 ;
868 [label="gini = 0.0\nsamples = 3\nvalue = [0, 0, 0, 0, 0, 0, 0, 0, 0, 3]"] ;
867 -> 868 ;
869 [label="X[377] <= 110.0\ngini = 0.5\nsamples = 2\nvalue = [0, 0, 0, 0, 1, 0, 0, 1, 0, 0]"] ;
867 -> 869 ;
870 [label="gini = 0.0\nsamples = 1\nvalue = [0, 0, 0, 0, 0, 0, 0, 1, 0, 0]"] ;
869 -> 870 ;
871 [label="gini = 0.0\nsamples = 1\nvalue = [0, 0, 0, 0, 1, 0, 0, 0, 0, 0]"] ;
869 -> 871 ;
872 [label="gini = 0.0\nsamples = 6\nvalue = [0, 0, 0, 6, 0, 0, 0, 0, 0, 0]"] ;
866 -> 872 ;
873 [label="X[296] <= 254.5\ngini = 0.095\nsamples = 20\nvalue = [0, 0, 0, 0, 1, 0, 0, 19, 0, 0]"] ;
865 -> 873 ;
874 [label="gini = 0.0\nsamples = 19\nvalue = [0, 0, 0, 0, 0, 0, 0, 19, 0, 0]"] ;
873 -> 874 ;
875 [label="gini = 0.0\nsamples = 1\nvalue = [0, 0, 0, 0, 1, 0, 0, 0, 0, 0]"] ;
873 -> 875 ;
876 [label="X[486] <= 19.0\ngini = 0.532\nsamples = 64\nvalue = [0, 0, 4, 43, 2, 2, 3, 4, 4, 2]"] ;
840 -> 876 ;
877 [label="X[546] <= 236.0\ngini = 0.285\nsamples = 50\nvalue = [0, 0, 0, 42, 0, 2, 0, 4, 2, 0]"] ;
876 -> 877 ;
878 [label="X[127] <= 36.0\ngini = 0.166\nsamples = 45\nvalue = [0, 0, 0, 41, 0, 2, 0, 0, 2, 0]"] ;
877 -> 878 ;
879 [label="X[312] <= 240.0\ngini = 0.046\nsamples = 42\nvalue = [0, 0, 0, 41, 0, 0, 0, 0, 1, 0]"] ;
878 -> 879 ;
880 [label="gini = 0.0\nsamples = 41\nvalue = [0, 0, 0, 41, 0, 0, 0, 0, 0, 0]"] ;
879 -> 880 ;
881 [label="gini = 0.0\nsamples = 1\nvalue = [0, 0, 0, 0, 0, 0, 0, 0, 1, 0]"] ;
879 -> 881 ;
882 [label="X[658] <= 233.5\ngini = 0.444\nsamples = 3\nvalue = [0, 0, 0, 0, 0, 2, 0, 0, 1, 0]"] ;
878 -> 882 ;
883 [label="gini = 0.0\nsamples = 2\nvalue = [0, 0, 0, 0, 0, 2, 0, 0, 0, 0]"] ;
882 -> 883 ;
884 [label="gini = 0.0\nsamples = 1\nvalue = [0, 0, 0, 0, 0, 0, 0, 0, 1, 0]"] ;
882 -> 884 ;
885 [label="X[325] <= 253.0\ngini = 0.32\nsamples = 5\nvalue = [0, 0, 0, 1, 0, 0, 0, 4, 0, 0]"] ;
877 -> 885 ;
886 [label="gini = 0.0\nsamples = 4\nvalue = [0, 0, 0, 0, 0, 0, 0, 4, 0, 0]"] ;
885 -> 886 ;
887 [label="gini = 0.0\nsamples = 1\nvalue = [0, 0, 0, 1, 0, 0, 0, 0, 0, 0]"] ;
885 -> 887 ;
888 [label="X[407] <= 114.5\ngini = 0.806\nsamples = 14\nvalue = [0, 0, 4, 1, 2, 0, 3, 0, 2, 2]"] ;
876 -> 888 ;
889 [label="gini = 0.0\nsamples = 4\nvalue = [0, 0, 4, 0, 0, 0, 0, 0, 0, 0]"] ;
888 -> 889 ;
890 [label="X[123] <= 103.5\ngini = 0.78\nsamples = 10\nvalue = [0, 0, 0, 1, 2, 0, 3, 0, 2, 2]"] ;
888 -> 890 ;
891 [label="X[603] <= 38.5\ngini = 0.735\nsamples = 7\nvalue = [0, 0, 0, 1, 2, 0, 0, 0, 2, 2]"] ;
890 -> 891 ;
892 [label="X[216] <= 41.5\ngini = 0.64\nsamples = 5\nvalue = [0, 0, 0, 1, 2, 0, 0, 0, 0, 2]"] ;
891 -> 892 ;
893 [label="X[435] <= 161.0\ngini = 0.444\nsamples = 3\nvalue = [0, 0, 0, 1, 0, 0, 0, 0, 0, 2]"] ;
892 -> 893 ;
894 [label="gini = 0.0\nsamples = 2\nvalue = [0, 0, 0, 0, 0, 0, 0, 0, 0, 2]"] ;
893 -> 894 ;
895 [label="gini = 0.0\nsamples = 1\nvalue = [0, 0, 0, 1, 0, 0, 0, 0, 0, 0]"] ;
893 -> 895 ;
896 [label="gini = 0.0\nsamples = 2\nvalue = [0, 0, 0, 0, 2, 0, 0, 0, 0, 0]"] ;
892 -> 896 ;
897 [label="gini = 0.0\nsamples = 2\nvalue = [0, 0, 0, 0, 0, 0, 0, 0, 2, 0]"] ;
891 -> 897 ;
898 [label="gini = 0.0\nsamples = 3\nvalue = [0, 0, 0, 0, 0, 0, 3, 0, 0, 0]"] ;
890 -> 898 ;
899 [label="X[544] <= 126.5\ngini = 0.022\nsamples = 88\nvalue = [0, 0, 0, 87, 0, 0, 0, 0, 0, 1]"] ;
839 -> 899 ;
900 [label="gini = 0.0\nsamples = 87\nvalue = [0, 0, 0, 87, 0, 0, 0, 0, 0, 0]"] ;
899 -> 900 ;
901 [label="gini = 0.0\nsamples = 1\nvalue = [0, 0, 0, 0, 0, 0, 0, 0, 0, 1]"] ;
899 -> 901 ;
902 [label="X[210] <= 22.5\ngini = 0.624\nsamples = 406\nvalue = [0, 0, 0, 19, 87, 14, 1, 10, 48, 227]"] ;
838 -> 902 ;
903 [label="X[155] <= 22.5\ngini = 0.548\nsamples = 118\nvalue = [0, 0, 0, 6, 77, 4, 1, 7, 11, 12]"] ;
902 -> 903 ;
904 [label="X[266] <= 31.5\ngini = 0.382\nsamples = 98\nvalue = [0, 0, 0, 0, 76, 1, 1, 7, 3, 10]"] ;
903 -> 904 ;
905 [label="X[340] <= 76.5\ngini = 0.183\nsamples = 82\nvalue = [0, 0, 0, 0, 74, 1, 1, 3, 1, 2]"] ;
904 -> 905 ;
906 [label="X[374] <= 9.0\ngini = 0.121\nsamples = 79\nvalue = [0, 0, 0, 0, 74, 1, 1, 0, 1, 2]"] ;
905 -> 906 ;
907 [label="X[471] <= 111.0\ngini = 0.75\nsamples = 4\nvalue = [0, 0, 0, 0, 0, 1, 1, 0, 1, 1]"] ;
906 -> 907 ;
908 [label="X[264] <= 3.5\ngini = 0.667\nsamples = 3\nvalue = [0, 0, 0, 0, 0, 1, 0, 0, 1, 1]"] ;
907 -> 908 ;
909 [label="gini = 0.0\nsamples = 1\nvalue = [0, 0, 0, 0, 0, 0, 0, 0, 0, 1]"] ;
908 -> 909 ;
910 [label="X[599] <= 67.0\ngini = 0.5\nsamples = 2\nvalue = [0, 0, 0, 0, 0, 1, 0, 0, 1, 0]"] ;
908 -> 910 ;
911 [label="gini = 0.0\nsamples = 1\nvalue = [0, 0, 0, 0, 0, 1, 0, 0, 0, 0]"] ;
910 -> 911 ;
912 [label="gini = 0.0\nsamples = 1\nvalue = [0, 0, 0, 0, 0, 0, 0, 0, 1, 0]"] ;
910 -> 912 ;
913 [label="gini = 0.0\nsamples = 1\nvalue = [0, 0, 0, 0, 0, 0, 1, 0, 0, 0]"] ;
907 -> 913 ;
914 [label="X[182] <= 119.0\ngini = 0.026\nsamples = 75\nvalue = [0, 0, 0, 0, 74, 0, 0, 0, 0, 1]"] ;
906 -> 914 ;
915 [label="gini = 0.0\nsamples = 73\nvalue = [0, 0, 0, 0, 73, 0, 0, 0, 0, 0]"] ;
914 -> 915 ;
916 [label="X[519] <= 131.0\ngini = 0.5\nsamples = 2\nvalue = [0, 0, 0, 0, 1, 0, 0, 0, 0, 1]"] ;
914 -> 916 ;
917 [label="gini = 0.0\nsamples = 1\nvalue = [0, 0, 0, 0, 0, 0, 0, 0, 0, 1]"] ;
916 -> 917 ;
918 [label="gini = 0.0\nsamples = 1\nvalue = [0, 0, 0, 0, 1, 0, 0, 0, 0, 0]"] ;
916 -> 918 ;
919 [label="gini = 0.0\nsamples = 3\nvalue = [0, 0, 0, 0, 0, 0, 0, 3, 0, 0]"] ;
905 -> 919 ;
920 [label="X[295] <= 213.5\ngini = 0.656\nsamples = 16\nvalue = [0, 0, 0, 0, 2, 0, 0, 4, 2, 8]"] ;
904 -> 920 ;
921 [label="X[186] <= 18.0\ngini = 0.5\nsamples = 12\nvalue = [0, 0, 0, 0, 2, 0, 0, 0, 2, 8]"] ;
920 -> 921 ;
922 [label="gini = 0.0\nsamples = 8\nvalue = [0, 0, 0, 0, 0, 0, 0, 0, 0, 8]"] ;
921 -> 922 ;
923 [label="X[493] <= 1.0\ngini = 0.5\nsamples = 4\nvalue = [0, 0, 0, 0, 2, 0, 0, 0, 2, 0]"] ;
921 -> 923 ;
924 [label="gini = 0.0\nsamples = 2\nvalue = [0, 0, 0, 0, 0, 0, 0, 0, 2, 0]"] ;
923 -> 924 ;
925 [label="gini = 0.0\nsamples = 2\nvalue = [0, 0, 0, 0, 2, 0, 0, 0, 0, 0]"] ;
923 -> 925 ;
926 [label="gini = 0.0\nsamples = 4\nvalue = [0, 0, 0, 0, 0, 0, 0, 4, 0, 0]"] ;
920 -> 926 ;
927 [label="X[660] <= 5.0\ngini = 0.715\nsamples = 20\nvalue = [0, 0, 0, 6, 1, 3, 0, 0, 8, 2]"] ;
903 -> 927 ;
928 [label="X[157] <= 0.5\ngini = 0.245\nsamples = 7\nvalue = [0, 0, 0, 6, 1, 0, 0, 0, 0, 0]"] ;
927 -> 928 ;
929 [label="gini = 0.0\nsamples = 1\nvalue = [0, 0, 0, 0, 1, 0, 0, 0, 0, 0]"] ;
928 -> 929 ;
930 [label="gini = 0.0\nsamples = 6\nvalue = [0, 0, 0, 6, 0, 0, 0, 0, 0, 0]"] ;
928 -> 930 ;
931 [label="X[411] <= 34.0\ngini = 0.544\nsamples = 13\nvalue = [0, 0, 0, 0, 0, 3, 0, 0, 8, 2]"] ;
927 -> 931 ;
932 [label="X[241] <= 253.5\ngini = 0.32\nsamples = 10\nvalue = [0, 0, 0, 0, 0, 0, 0, 0, 8, 2]"] ;
931 -> 932 ;
933 [label="gini = 0.0\nsamples = 8\nvalue = [0, 0, 0, 0, 0, 0, 0, 0, 8, 0]"] ;
932 -> 933 ;
934 [label="gini = 0.0\nsamples = 2\nvalue = [0, 0, 0, 0, 0, 0, 0, 0, 0, 2]"] ;
932 -> 934 ;
935 [label="gini = 0.0\nsamples = 3\nvalue = [0, 0, 0, 0, 0, 3, 0, 0, 0, 0]"] ;
931 -> 935 ;
936 [label="X[579] <= 9.0\ngini = 0.422\nsamples = 288\nvalue = [0, 0, 0, 13, 10, 10, 0, 3, 37, 215]"] ;
902 -> 936 ;
937 [label="X[156] <= 33.5\ngini = 0.275\nsamples = 243\nvalue = [0, 0, 0, 5, 10, 3, 0, 3, 16, 206]"] ;
936 -> 937 ;
938 [label="X[211] <= 1.5\ngini = 0.186\nsamples = 221\nvalue = [0, 0, 0, 4, 10, 0, 0, 3, 5, 199]"] ;
937 -> 938 ;
939 [label="X[491] <= 106.5\ngini = 0.278\nsamples = 6\nvalue = [0, 0, 0, 0, 5, 0, 0, 0, 0, 1]"] ;
938 -> 939 ;
940 [label="gini = 0.0\nsamples = 1\nvalue = [0, 0, 0, 0, 0, 0, 0, 0, 0, 1]"] ;
939 -> 940 ;
941 [label="gini = 0.0\nsamples = 5\nvalue = [0, 0, 0, 0, 5, 0, 0, 0, 0, 0]"] ;
939 -> 941 ;
942 [label="X[621] <= 25.0\ngini = 0.15\nsamples = 215\nvalue = [0, 0, 0, 4, 5, 0, 0, 3, 5, 198]"] ;
938 -> 942 ;
943 [label="X[515] <= 118.5\ngini = 0.126\nsamples = 212\nvalue = [0, 0, 0, 1, 5, 0, 0, 3, 5, 198]"] ;
942 -> 943 ;
944 [label="X[379] <= 4.0\ngini = 0.11\nsamples = 210\nvalue = [0, 0, 0, 1, 5, 0, 0, 3, 3, 198]"] ;
943 -> 944 ;
945 [label="X[264] <= 248.0\ngini = 0.64\nsamples = 10\nvalue = [0, 0, 0, 0, 3, 0, 0, 1, 1, 5]"] ;
944 -> 945 ;
946 [label="X[605] <= 238.5\ngini = 0.449\nsamples = 7\nvalue = [0, 0, 0, 0, 0, 0, 0, 1, 1, 5]"] ;
945 -> 946 ;
947 [label="gini = 0.0\nsamples = 5\nvalue = [0, 0, 0, 0, 0, 0, 0, 0, 0, 5]"] ;
946 -> 947 ;
948 [label="X[492] <= 188.5\ngini = 0.5\nsamples = 2\nvalue = [0, 0, 0, 0, 0, 0, 0, 1, 1, 0]"] ;
946 -> 948 ;
949 [label="gini = 0.0\nsamples = 1\nvalue = [0, 0, 0, 0, 0, 0, 0, 0, 1, 0]"] ;
948 -> 949 ;
950 [label="gini = 0.0\nsamples = 1\nvalue = [0, 0, 0, 0, 0, 0, 0, 1, 0, 0]"] ;
948 -> 950 ;
951 [label="gini = 0.0\nsamples = 3\nvalue = [0, 0, 0, 0, 3, 0, 0, 0, 0, 0]"] ;
945 -> 951 ;
952 [label="X[323] <= 254.5\ngini = 0.068\nsamples = 200\nvalue = [0, 0, 0, 1, 2, 0, 0, 2, 2, 193]"] ;
944 -> 952 ;
953 [label="X[537] <= 82.0\ngini = 0.059\nsamples = 199\nvalue = [0, 0, 0, 0, 2, 0, 0, 2, 2, 193]"] ;
952 -> 953 ;
954 [label="X[177] <= 96.0\ngini = 0.05\nsamples = 198\nvalue = [0, 0, 0, 0, 1, 0, 0, 2, 2, 193]"] ;
953 -> 954 ;
955 [label="X[231] <= 220.5\ngini = 0.04\nsamples = 197\nvalue = [0, 0, 0, 0, 1, 0, 0, 1, 2, 193]"] ;
954 -> 955 ;
956 [label="X[152] <= 139.0\ngini = 0.03\nsamples = 196\nvalue = [0, 0, 0, 0, 1, 0, 0, 0, 2, 193]"] ;
955 -> 956 ;
957 [label="X[346] <= 5.5\ngini = 0.02\nsamples = 195\nvalue = [0, 0, 0, 0, 1, 0, 0, 0, 1, 193]"] ;
956 -> 957 ;
958 [label="X[492] <= 220.0\ngini = 0.444\nsamples = 3\nvalue = [0, 0, 0, 0, 0, 0, 0, 0, 1, 2]"] ;
957 -> 958 ;
959 [label="gini = 0.0\nsamples = 1\nvalue = [0, 0, 0, 0, 0, 0, 0, 0, 1, 0]"] ;
958 -> 959 ;
960 [label="gini = 0.0\nsamples = 2\nvalue = [0, 0, 0, 0, 0, 0, 0, 0, 0, 2]"] ;
958 -> 960 ;
961 [label="X[296] <= 253.5\ngini = 0.01\nsamples = 192\nvalue = [0, 0, 0, 0, 1, 0, 0, 0, 0, 191]"] ;
957 -> 961 ;
962 [label="gini = 0.0\nsamples = 180\nvalue = [0, 0, 0, 0, 0, 0, 0, 0, 0, 180]"] ;
961 -> 962 ;
963 [label="X[185] <= 16.5\ngini = 0.153\nsamples = 12\nvalue = [0, 0, 0, 0, 1, 0, 0, 0, 0, 11]"] ;
961 -> 963 ;
964 [label="gini = 0.0\nsamples = 11\nvalue = [0, 0, 0, 0, 0, 0, 0, 0, 0, 11]"] ;
963 -> 964 ;
965 [label="gini = 0.0\nsamples = 1\nvalue = [0, 0, 0, 0, 1, 0, 0, 0, 0, 0]"] ;
963 -> 965 ;
966 [label="gini = 0.0\nsamples = 1\nvalue = [0, 0, 0, 0, 0, 0, 0, 0, 1, 0]"] ;
956 -> 966 ;
967 [label="gini = 0.0\nsamples = 1\nvalue = [0, 0, 0, 0, 0, 0, 0, 1, 0, 0]"] ;
955 -> 967 ;
968 [label="gini = 0.0\nsamples = 1\nvalue = [0, 0, 0, 0, 0, 0, 0, 1, 0, 0]"] ;
